tree
version=v2
num_class=3
num_tree_per_iteration=3
label_index=0
max_feature_idx=12
objective=multiclass num_class:3
feature_names=Column_0 Column_1 Column_2 Column_3 Column_4 Column_5 Column_6 Column_7 Column_8 Column_9 Column_10 Column_11 Column_12
feature_infos=13:12:14:11 1:2:3:4:0:5 none 18:16:20:21:19:22:17:24:15:25:23:14 88:86:101:98:96:102:85:112:94:80:97:89:103:92:90:106:107:108:104:95:110:111:100:116:87:84:118:120:78 2:1:3 2:0:1:3 none 1:2:0 2:5:3:4:7:6:8:9:1:10 1:0 2:3:1 520:680:750:625:630:450:562:1285:1035:660:510:495:480
tree_sizes=523 584 398 524 589 532 530 591 537 530 591 537 530 592 539 530 590 537 529 594 539 530 591 539 529 592 539 529 594 537 529 470 541 533 467 541 532 592 536 530 533 534 535 590 535 534 599 539 530 531 593 535 593 593 467 533 593 470 533 593 536 533 593 467 533 594 470 533 663 534 534 663 467 534 663 471 537 662 535 533 662 470 537 664 472 538 662 590 536 662 473 536 664 473 539 665 536 538 665 474 599 667 531 542 601 475 597 665 539 595 601 532 594 665 533 599 602 532 600 665 539 599 602 476 600 603 474 598 663 539 599 601 600 599 667 473 600 604 537 539 604 535 599 606 601 601 667 472 536 603 542 600 608 475 602 606 539 539 668 539 600 607 603 597 605 474 536 607 541 601 607 540 597 606 534 540 607 598 539 667 474 604 605 542 536 605 476 604 605 475 539 606 542 604 604 544 541 605 602 601 606 537 541 604 604 539 606 542 603 604 604 604 603 476 539 607 544 600 606 536 538 602 604 547 605 546 546 607 543 605 544 604 546 544 481 605 602 545 607 540 546 544 542 608 602 606 545 601 542 604 545 541 483 543 602 547 603 543 544 603 541 542 607 606 606 544 541 547 548 541 607 607 604 545 609 601 483 547 534 545 538 541 549 608 542 551 609 601 606 546 544 546 607 542 549 610 607 540 608 543 608 606 534 613 609 537 603 539 545 483 608 536 545 609 547 612 548 533 482 540 542 543 610 545 550 547 538 546 545 543 547 612 544 546 548 539 545 539 543 551 548 541 476 610 608 612 542 542 543 609 547 613 547 610 542 544 546 610 549 542 611 611 609 611 542 547 611 610 606 610 544 546 612 612 536 612 609 546 549 550 542 613 612 611 549 611 612 483 541 678 546 612 604 612 544 548 614 548 544 543 612 609 613 613 549 544 609 537 543 615 545 480 611 611 549 609 546 546 603 549 482 672 546 482 611 611 549 611 549 547 607 535 480 616 546 477 608 546 547 672 678 613 612 612 618 612 548 613 607 537 616 548 536 549 551 544 548 550 550 482 610 537 483 545 535 614 551 546 486 669 548 612 549 612 617 615 546 551 673 535 611 551 542 556 551 610 551 551 544 554 667 538 613 547 545 553 607 544 554 612 547 552 676 539 556 609 542 551 550 611 619 552 546 614 618 540 617 674 542 486 546 545 609 613 605 548 676 544 614 547 610 547 551 544 614 556 604 615 554 541 611 553 542 611 623 612 615 554 543 613 613 609 548 617 612 485 553 610 616 623 613 549 618 610 619 554 611 484 555 678 619 621 477 548 612 478 550 550 676 484 617 541 619 555 477 485 552 542 486 554 542 550 614 480 551 550 482 485 557 480

Tree=0
num_leaves=6
num_cat=5
split_feature=5 0 10 11 0
split_gain=24.1051 23.5287 5.95252 0.1875 1.77636e-15
threshold=0 1 2 3 4
decision_type=5 1 1 5 1
left_child=4 -2 3 -3 -1
right_child=1 2 -4 -5 -6
leaf_value=-0.075000001676380615 -0.062142858531858226 0.1285714314452239 0.033870968499010605 0.10982143102612876 -0.075000001676380615
leaf_count=32 35 21 31 28 31
internal_value=0 0.404348 0.853125 1.17857 -0.75
internal_count=178 115 80 49 63
cat_boundaries=0 1 2 3 4 5
cat_threshold=2 4096 2 8 4096
shrinkage=0.1


Tree=1
num_leaves=7
num_cat=6
split_feature=0 0 10 5 6 6
split_gain=21.0241 21.1526 6.65313 8.6689 0.822857 0.242596
threshold=0 1 2 3 4 5
decision_type=1 1 1 5 5 5
left_child=4 -2 -3 -4 -1 -6
right_child=1 2 3 -5 5 -7
leaf_value=-0.075000001676380615 -0.075000001676380615 0.13783784091875359 -0.0057692308981831244 0.12065217660982969 -0.049038462634556551 -0.028125000628642729
leaf_count=20 22 37 26 23 26 24
internal_value=0 0.5625 0.898256 0.535714 -0.492857 -0.39
internal_count=178 108 86 49 70 50
cat_boundaries=0 1 2 3 4 5 6
cat_threshold=8192 16384 2 2 1 4
shrinkage=0.1


Tree=2
num_leaves=4
num_cat=3
split_feature=6 6 0
split_gain=53.7318 3.99457 0.225
threshold=0 1 2
decision_type=5 5 1
left_child=2 -2 -1
right_child=1 -3 -4
leaf_value=0.15000000335276123 -0.018750000419095157 -0.075000001676380629 0.12750000284984706
leaf_count=20 40 98 20
internal_value=0 -0.586957 1.3875
internal_count=178 138 40
cat_boundaries=0 1 2 3
cat_threshold=1 2 8192
shrinkage=0.1


Tree=3
num_leaves=6
num_cat=5
split_feature=5 0 10 11 6
split_gain=21.186 19.3562 4.63608 0.130804 0.000576621
threshold=0 1 2 3 4
decision_type=5 1 1 5 5
left_child=4 -2 3 -3 -1
right_child=1 2 -4 -5 -6
leaf_value=-0.071979940716603477 -0.05904733471352587 0.11218980258630125 0.030500296073349573 0.096932333183719951 -0.0729081266495544
leaf_count=34 35 21 31 28 29
internal_value=0 0.369289 0.757916 1.03503 -0.724107
internal_count=178 115 80 49 63
cat_boundaries=0 1 2 3 4 5
cat_threshold=2 4096 2 8 1
shrinkage=0.1


Tree=4
num_leaves=7
num_cat=6
split_feature=0 0 10 5 6 6
split_gain=18.0804 17.9666 5.1286 7.17254 0.741286 0.22195
threshold=0 1 2 3 4 5
decision_type=1 1 1 5 5 5
left_child=4 -2 -3 -4 -1 -6
right_child=1 2 3 -5 5 -7
leaf_value=-0.072093346594188687 -0.072732091445302557 0.12144641380320627 -0.0057251696973705081 0.10793650809135083 -0.047023158851312356 -0.026860644151741987
leaf_count=20 22 37 26 23 26 24
internal_value=0 0.511486 0.807148 0.489201 -0.470352 -0.372931
internal_count=178 108 86 49 70 50
cat_boundaries=0 1 2 3 4 5 6
cat_threshold=8192 16384 2 2 1 4
shrinkage=0.1


Tree=5
num_leaves=6
num_cat=5
split_feature=6 6 0 10 0
split_gain=45.4941 3.70278 0.119867 0.000123579 7.15511e-06
threshold=0 1 2 3 4
decision_type=5 5 1 1 1
left_child=2 -2 -1 4 -3
right_child=1 3 -4 -5 -6
leaf_value=0.13030525412219285 -0.017777337045320085 -0.072337218274932114 0.1143187361576735 -0.072648040593511348 -0.07223595757933042
leaf_count=20 40 30 20 32 36
internal_value=0 -0.562101 1.22378 -0.72402 -0.72282
internal_count=178 138 40 98 66
cat_boundaries=0 1 2 3 4 5
cat_threshold=1 2 8192 2 8192
shrinkage=0.1


Tree=6
num_leaves=6
num_cat=5
split_feature=5 0 10 11 6
split_gain=18.7193 16.0562 3.73095 0.0980033 0.00184271
threshold=0 1 2 3 4
decision_type=5 1 1 5 5
left_child=4 -2 3 -3 -1
right_child=1 2 -4 -5 -6
leaf_value=-0.069403736201512176 -0.056222132906623361 0.099727851505163806 0.027546042101415827 0.086743341972158342 -0.071098677911958216
leaf_count=34 35 21 31 28 29
internal_value=0 0.339684 0.680484 0.923461 -0.701979
internal_count=178 115 80 49 63
cat_boundaries=0 1 2 3 4 5
cat_threshold=2 4096 2 8 1
shrinkage=0.1


Tree=7
num_leaves=7
num_cat=6
split_feature=0 0 10 5 6 6
split_gain=15.6482 15.4429 4.09959 6.03623 0.677164 0.203087
threshold=0 1 2 3 4 5
decision_type=1 1 1 5 5 5
left_child=4 -2 -3 -4 -1 -6
right_child=1 2 3 -5 5 -7
leaf_value=-0.069574686701954672 -0.070706166472624718 0.10906806808325485 -0.0055713480363174363 0.097927330223676001 -0.045065083407696771 -0.025613183382579494
leaf_count=20 22 37 26 23 26 24
internal_value=0 0.469915 0.734332 0.450404 -0.44905 -0.356229
internal_count=178 108 86 49 70 50
cat_boundaries=0 1 2 3 4 5 6
cat_threshold=8192 16384 2 2 1 4
shrinkage=0.1


Tree=8
num_leaves=6
num_cat=5
split_feature=6 6 0 10 0
split_gain=39.0461 3.46467 0.0693599 0.000414434 2.72678e-05
threshold=0 1 2 3 4
decision_type=5 5 1 1 1
left_child=2 -2 -1 4 -3
right_child=1 3 -4 -5 -6
leaf_value=0.11597944771124953 -0.016813295491075669 -0.070048323594187736 0.10402185089677743 -0.070622442725480392 -0.069846078020367117
leaf_count=20 40 30 20 32 36
internal_value=0 -0.539597 1.10066 -0.701636 -0.699382
internal_count=178 138 40 98 66
cat_boundaries=0 1 2 3 4 5
cat_threshold=1 2 8192 2 8192
shrinkage=0.1


Tree=9
num_leaves=6
num_cat=5
split_feature=5 0 10 11 6
split_gain=16.6133 13.3981 3.07961 0.0776588 0.00334029
threshold=0 1 2 3 4
decision_type=5 1 1 5 5
left_child=4 -2 3 -3 -1
right_child=1 2 -4 -5 -6
leaf_value=-0.067186504847989645 -0.053606476238404588 0.089909335710227106 0.024935876891232899 0.078463647747259321 -0.069521668697513903
leaf_count=34 35 21 31 28 29
internal_value=0 0.314247 0.616053 0.834012 -0.682925
internal_count=178 115 80 49 63
cat_boundaries=0 1 2 3 4 5
cat_threshold=2 4096 2 8 1
shrinkage=0.1


Tree=10
num_leaves=7
num_cat=6
split_feature=0 0 10 5 6 6
split_gain=13.6103 13.3991 3.37106 5.14734 0.625759 0.185861
threshold=0 1 2 3 4 5
decision_type=1 1 1 5 5 5
left_child=4 -2 -3 -4 -1 -6
right_child=1 2 3 -5 5 -7
leaf_value=-0.067380136930275294 -0.068896714039335977 0.09940961054594212 -0.0053370413079765477 0.08984149567573313 -0.043168363700890708 -0.024390504956491144
leaf_count=20 22 37 26 23 26 24
internal_value=0 0.435399 0.674789 0.417557 -0.428815 -0.33996
internal_count=178 108 86 49 70 50
cat_boundaries=0 1 2 3 4 5 6
cat_threshold=8192 16384 2 2 1 4
shrinkage=0.1


Tree=11
num_leaves=6
num_cat=5
split_feature=6 6 0 10 0
split_gain=33.8527 3.26701 0.0435596 0.000780329 5.8834e-05
threshold=0 1 2 3 4
decision_type=5 5 1 1 1
left_child=2 -2 -1 4 -3
right_child=1 3 -4 -5 -6
leaf_value=0.1051491823026852 -0.015864494451097482 -0.068067701663468039 0.095758691141491756 -0.068862055498881983 -0.067763190132356196
leaf_count=20 40 30 20 32 36
internal_value=0 -0.519009 1.00497 -0.682201 -0.679022
internal_count=178 138 40 98 66
cat_boundaries=0 1 2 3 4 5
cat_threshold=1 2 8192 2 8192
shrinkage=0.1


Tree=12
num_leaves=6
num_cat=5
split_feature=5 0 10 11 6
split_gain=14.7998 11.2266 2.59263 0.064284 0.00481358
threshold=0 1 2 3 4
decision_type=5 1 1 5 5
left_child=4 -2 3 -3 -1
right_child=1 2 -4 -5 -6
leaf_value=-0.065264918527914911 -0.051154472711134928 0.081950877023963919 0.022613380717257235 0.071579650059608063 -0.068137884401041335
leaf_count=34 35 21 31 28 29
internal_value=0 0.292057 0.561393 0.760451 -0.666419
internal_count=178 115 80 49 63
cat_boundaries=0 1 2 3 4 5
cat_threshold=2 4096 2 8 1
shrinkage=0.1


Tree=13
num_leaves=7
num_cat=6
split_feature=0 0 10 5 6 6
split_gain=11.8846 11.715 2.83505 4.43545 0.583724 0.170113
threshold=0 1 2 3 4 5
decision_type=1 1 1 5 5 5
left_child=4 -2 -3 -4 -1 -6
right_child=1 2 3 -5 5 -7
leaf_value=-0.065459777770611571 -0.067280283331731291 0.091677140136862054 -0.0050448627672602091 0.083169340779187348 -0.041334287012372697 -0.02319847607931684
leaf_count=20 22 37 26 23 26 24
internal_value=0 0.406281 0.625168 0.389386 -0.409532 -0.324166
internal_count=178 108 86 49 70 50
cat_boundaries=0 1 2 3 4 5 6
cat_threshold=8192 16384 2 2 1 4
shrinkage=0.1


Tree=14
num_leaves=6
num_cat=5
split_feature=6 6 0 10 0
split_gain=29.5804 3.1003 0.0297644 0.00115744 9.99245e-05
threshold=0 1 2 3 4
decision_type=5 5 1 1 1
left_child=2 -2 -1 4 -3
right_child=1 3 -4 -5 -6
leaf_value=0.096721979734315303 -0.014936108939791835 -0.066344786738336214 0.088982093624154143 -0.067320466520381983 -0.065937340623836924
leaf_count=20 40 30 20 32 36
internal_value=0 -0.500003 0.928675 -0.665227 -0.661238
internal_count=178 138 40 98 66
cat_boundaries=0 1 2 3 4 5
cat_threshold=1 2 8192 2 8192
shrinkage=0.1


Tree=15
num_leaves=6
num_cat=5
split_feature=5 0 10 11 6
split_gain=13.2273 9.43302 2.21639 0.0550237 0.00612413
threshold=0 1 2 3 4
decision_type=5 1 1 5 5
left_child=4 -2 3 -3 -1
right_child=1 2 -4 -5 -6
leaf_value=-0.063590221645198744 -0.048830188787993861 0.075343998425444481 0.02053393119758699 0.065743156011344658 -0.066915955971266969
leaf_count=34 35 21 31 28 29
internal_value=0 0.272436 0.514243 0.698637 -0.652047
internal_count=178 115 80 49 63
cat_boundaries=0 1 2 3 4 5
cat_threshold=2 4096 2 8 1
shrinkage=0.1


Tree=16
num_leaves=7
num_cat=6
split_feature=0 0 11 11 6 6
split_gain=10.4109 10.308 2.60516 8.16276 0.548626 0.155691
threshold=0 1 2 3 4 5
decision_type=1 1 5 5 5 5
left_child=4 -2 -3 -4 -1 -6
right_child=1 2 3 -5 5 -7
leaf_value=-0.063773478335997141 -0.065835510628162217 0.086973860347787008 0.084906787284693641 -0.035924831178894716 -0.039562437093555496 -0.022041405654796759
leaf_count=20 22 37 28 21 26 24
internal_value=0 0.381374 0.583138 0.36225 -0.3911 -0.308873
internal_count=178 108 86 49 70 50
cat_boundaries=0 1 2 3 4 5 6
cat_threshold=8192 16384 4 8 1 4
shrinkage=0.1


Tree=17
num_leaves=6
num_cat=5
split_feature=6 6 0 10 0
split_gain=26.008 2.95754 0.0221613 0.00150377 0.000148005
threshold=0 1 2 3 4
decision_type=5 5 1 1 1
left_child=2 -2 -1 4 -3
right_child=1 3 -4 -5 -6
leaf_value=0.090016335311624104 -0.014032043798115207 -0.064839676691802503 0.08332353422122174 -0.065961641955682326 -0.064329839114189644
leaf_count=20 40 30 20 32 36
internal_value=0 -0.482318 0.866568 -0.65033 -0.645639
internal_count=178 138 40 98 66
cat_boundaries=0 1 2 3 4 5
cat_threshold=1 2 8192 2 8192
shrinkage=0.1


Tree=18
num_leaves=6
num_cat=5
split_feature=5 0 10 11 6
split_gain=11.8159 7.98176 1.9096 0.0482051 0.00670485
threshold=0 1 2 3 4
decision_type=5 1 1 5 5
left_child=4 -2 3 -3 -1
right_child=1 2 -4 -5 -6
leaf_value=-0.062128284858354421 -0.046707803197769661 0.06974385329599489 0.018750378649738005 0.060717775438077853 -0.065706799488313136
leaf_count=34 35 21 31 28 29
internal_value=0 0.254402 0.473397 0.645751 -0.638855
internal_count=178 115 80 49 63
cat_boundaries=0 1 2 3 4 5
cat_threshold=2 4096 2 8 1
shrinkage=0.1


Tree=19
num_leaves=7
num_cat=6
split_feature=0 0 11 11 6 11
split_gain=9.14077 9.11589 2.28843 7.09589 0.518669 0.147917
threshold=0 1 2 3 4 5
decision_type=1 1 5 5 5 5
left_child=4 -2 -3 -4 -1 -6
right_child=1 2 3 -5 5 -7
leaf_value=-0.062288322846144266 -0.064543120927171668 0.081517320089087755 0.07921663234675462 -0.034191619715402841 -0.018783145517109835 -0.036410464192744858
leaf_count=20 22 37 28 21 20 30
internal_value=0 0.359651 0.546806 0.338082 -0.373435 -0.294094
internal_count=178 108 86 49 70 50
cat_boundaries=0 1 2 3 4 5 6
cat_threshold=8192 16384 4 8 1 4
shrinkage=0.1


Tree=20
num_leaves=6
num_cat=5
split_feature=6 6 0 10 0
split_gain=22.8596 2.84579 0.0218071 0.00173775 0.000202255
threshold=0 1 2 3 4
decision_type=5 5 1 1 1
left_child=2 -2 -1 4 -3
right_child=1 3 -4 -5 -6
leaf_value=0.084584644678223131 -0.013025167333666311 -0.063520273704321825 0.07790609231511042 -0.064731363147090701 -0.062906721598465262
leaf_count=20 40 30 20 32 36
internal_value=0 -0.465208 0.811954 -0.637104 -0.631893
internal_count=178 138 40 98 66
cat_boundaries=0 1 2 3 4 5
cat_threshold=1 2 8192 2 8192
shrinkage=0.1


Tree=21
num_leaves=6
num_cat=5
split_feature=5 0 10 11 6
split_gain=10.584 6.76066 1.67223 0.0406726 0.00711344
threshold=0 1 2 3 4
decision_type=5 1 1 5 5
left_child=4 -2 3 -3 -1
right_child=1 2 -4 -5 -6
leaf_value=-0.060845354033182711 -0.044661082738027873 0.064831798882837272 0.017040378376739732 0.056478220428760544 -0.064640196111874604
leaf_count=34 35 21 31 28 29
internal_value=0 0.238146 0.437187 0.600283 -0.627313
internal_count=178 115 80 49 63
cat_boundaries=0 1 2 3 4 5
cat_threshold=2 4096 2 8 1
shrinkage=0.1


Tree=22
num_leaves=7
num_cat=6
split_feature=0 0 11 11 8 5
split_gain=8.04384 8.10259 2.03065 6.20219 0.523535 0.31325
threshold=0 1 2 3 4 5
decision_type=1 1 5 5 5 5
left_child=4 -2 -3 -4 5 -1
right_child=1 2 3 -5 -6 -7
leaf_value=-0.056662245064561828 -0.063385740981401081 0.076889286451543554 0.074376744367128308 -0.03252784269432115 -0.013189989391056124 -0.030128897888271229
leaf_count=27 22 37 28 21 20 23
internal_value=0 0.340766 0.515469 0.316902 -0.35635 -0.448253
internal_count=178 108 86 49 70 50
cat_boundaries=0 1 2 3 4 5 6
cat_threshold=8192 16384 4 8 2 4
shrinkage=0.1


Tree=23
num_leaves=6
num_cat=5
split_feature=6 6 0 10 0
split_gain=20.1798 2.7437 0.0223592 0.00198728 0.000234846
threshold=0 1 2 3 4
decision_type=5 5 1 1 1
left_child=2 -2 -1 4 -3
right_child=1 3 -4 -5 -6
leaf_value=0.080120826546425258 -0.012087042490102095 -0.062329229395325286 0.073292471388253053 -0.063656189435832941 -0.061647725828772419
leaf_count=20 40 30 20 32 36
internal_value=0 -0.449117 0.766128 -0.625394 -0.619626
internal_count=178 138 40 98 66
cat_boundaries=0 1 2 3 4 5
cat_threshold=1 2 8192 2 8192
shrinkage=0.1


Tree=24
num_leaves=6
num_cat=5
split_feature=5 0 10 11 6
split_gain=9.46295 5.70678 1.45431 0.0374051 0.007552
threshold=0 1 2 3 4
decision_type=5 1 1 5 5
left_child=4 -2 3 -3 -1
right_child=1 2 -4 -5 -6
leaf_value=-0.059676725682758336 -0.042673393965225181 0.060448818981483299 0.015511914136384281 0.052352498271965614 -0.063708798787730503
leaf_count=34 35 21 31 28 29
internal_value=0 0.222079 0.403279 0.557725 -0.617087
internal_count=178 115 80 49 63
cat_boundaries=0 1 2 3 4 5
cat_threshold=2 4096 2 8 1
shrinkage=0.1


Tree=25
num_leaves=7
num_cat=6
split_feature=0 0 11 11 8 5
split_gain=7.08835 7.23346 1.81733 5.44474 0.504938 0.300134
threshold=0 1 2 3 4 5
decision_type=1 1 5 5 5 5
left_child=4 -2 -3 -4 5 -1
right_child=1 2 3 -5 -6 -7
leaf_value=-0.055063959302861912 -0.062347910473979876 0.072909752842591019 0.070195086252658537 -0.030930582657939399 -0.011757200090570945 -0.028626298799031225
leaf_count=27 22 37 28 21 20 23
internal_value=0 0.324162 0.4881 0.298125 -0.339497 -0.432007
internal_count=178 108 86 49 70 50
cat_boundaries=0 1 2 3 4 5 6
cat_threshold=8192 16384 4 8 2 4
shrinkage=0.1


Tree=26
num_leaves=6
num_cat=5
split_feature=6 6 0 10 0
split_gain=17.9862 2.65527 0.0264692 0.00209792 0.000314994
threshold=0 1 2 3 4
decision_type=5 5 1 1 1
left_child=2 -2 -1 4 -3
right_child=1 3 -4 -5 -6
leaf_value=0.076829428908161357 -0.01118332189287633 -0.061344534637830163 0.069314084842279397 -0.062696705019507179 -0.060530969795438289
leaf_count=20 40 30 20 32 36
internal_value=0 -0.434104 0.729261 -0.615222 -0.609089
internal_count=178 138 40 98 66
cat_boundaries=0 1 2 3 4 5
cat_threshold=1 2 8192 2 8192
shrinkage=0.1


Tree=27
num_leaves=6
num_cat=5
split_feature=5 0 10 11 6
split_gain=8.47997 4.81472 1.27086 0.0346084 0.00779836
threshold=0 1 2 3 4
decision_type=5 1 1 5 5
left_child=4 -2 3 -3 -1
right_child=1 2 -4 -5 -6
leaf_value=-0.058652184291167954 -0.040730668090436184 0.056545928755396414 0.014116171904569853 0.048656678890013828 -0.062881155905259695
leaf_count=34 35 21 31 28 29
internal_value=0 0.20728 0.372617 0.519673 -0.60814
internal_count=178 115 80 49 63
cat_boundaries=0 1 2 3 4 5
cat_threshold=2 4096 2 8 1
shrinkage=0.1


Tree=28
num_leaves=7
num_cat=6
split_feature=0 0 10 5 6 11
split_gain=6.25549 6.48279 1.64624 2.74447 0.502179 0.155859
threshold=0 1 2 3 4 5
decision_type=1 1 1 5 5 5
left_child=4 -2 -3 -4 -1 -6
right_child=1 2 3 -5 5 -7
leaf_value=-0.059410328757211854 -0.061416856857257132 0.069812709630014569 -0.0066806268617451495 0.06401058369839524 -0.013219567146863773 -0.031977867060330255
leaf_count=20 22 37 26 23 20 30
internal_value=0 0.309402 0.463926 0.283295 -0.323224 -0.245427
internal_count=178 108 86 49 70 50
cat_boundaries=0 1 2 3 4 5 6
cat_threshold=8192 16384 2 2 1 4
shrinkage=0.1


Tree=29
num_leaves=6
num_cat=5
split_feature=6 6 0 10 0
split_gain=16.0784 2.57472 0.0305273 0.00216072 0.000384542
threshold=0 1 2 3 4
decision_type=5 5 1 1 1
left_child=2 -2 -1 4 -3
right_child=1 3 -4 -5 -6
leaf_value=0.074028049553682668 -0.010313425922518589 -0.060466409610979668 0.065845821284780656 -0.061837458040929029 -0.059539134729400284
leaf_count=20 40 30 20 32 36
internal_value=0 -0.41977 0.69731 -0.60617 -0.599723
internal_count=178 138 40 98 66
cat_boundaries=0 1 2 3 4 5
cat_threshold=1 2 8192 2 8192
shrinkage=0.1


Tree=30
num_leaves=6
num_cat=5
split_feature=5 0 10 11 6
split_gain=7.67691 4.04316 1.13366 0.0297188 0.00797226
threshold=0 1 2 3 4
decision_type=5 1 1 5 5
left_child=4 -2 3 -3 -1
right_child=1 2 -4 -5 -6
leaf_value=-0.05777546560236281 -0.038673486693897224 0.05307284515200681 0.012764478703208047 0.045658216052326152 -0.062184862105512342
leaf_count=34 35 21 31 28 29
internal_value=0 0.195383 0.345817 0.487444 -0.600642
internal_count=178 115 80 49 63
cat_boundaries=0 1 2 3 4 5
cat_threshold=2 4096 2 8 1
shrinkage=0.1


Tree=31
num_leaves=5
num_cat=4
split_feature=6 6 0 0
split_gain=5.65278 4.36781 3.6969 0.455899
threshold=0 1 2 3
decision_type=5 5 1 1
left_child=-1 2 -2 -3
right_child=1 3 -4 -5
leaf_value=0.056406004490132923 -0.031391604313176426 -0.054288652936342191 0.048972503268532912 -0.026642015201366987
leaf_count=40 26 36 39 37
internal_value=0 -0.0876955 0.204885 -0.391851
internal_count=178 138 65 73
cat_boundaries=0 1 2 3 4
cat_threshold=2 4 8192 8192
shrinkage=0.1


Tree=32
num_leaves=6
num_cat=5
split_feature=6 6 0 10 0
split_gain=14.3653 2.48846 0.0301286 0.00225832 0.000401856
threshold=0 1 2 3 4
decision_type=5 5 1 1 1
left_child=2 -2 -1 4 -3
right_child=1 3 -4 -5 -6
leaf_value=0.071267283836499037 -0.0095930003387058246 -0.059630158232705358 0.062998007265884934 -0.061071367660572279 -0.058650738694258589
leaf_count=20 40 30 20 32 36
internal_value=0 -0.406126 0.668572 -0.597948 -0.591102
internal_count=178 138 40 98 66
cat_boundaries=0 1 2 3 4 5
cat_threshold=1 2 8192 2 8192
shrinkage=0.1


Tree=33
num_leaves=6
num_cat=5
split_feature=6 6 0 10 0
split_gain=6.88169 6.1647 3.53067 1.02875 0.000170499
threshold=0 1 2 3 4
decision_type=5 5 1 1 1
left_child=-1 4 -3 -4 -2
right_child=1 2 3 -5 -6
leaf_value=-0.068848911287568773 -0.058988421328845513 0.063104142679833983 -0.026087488388824936 0.020787138326408168 -0.058124014985815022
leaf_count=40 20 42 20 36 20
internal_value=0 0.154158 0.326368 0.0311153 -0.585693
internal_count=178 138 98 56 40
cat_boundaries=0 1 2 3 4 5
cat_threshold=2 1 8192 1 8192
shrinkage=0.1


Tree=34
num_leaves=5
num_cat=4
split_feature=6 6 0 0
split_gain=4.88174 3.82598 3.24986 0.452327
threshold=0 1 2 3
decision_type=5 5 1 1
left_child=-1 2 -2 -3
right_child=1 3 -4 -5
leaf_value=0.052647121728398985 -0.029976068282894092 -0.052930487780275232 0.04636760339245341 -0.024811798593265183
leaf_count=40 26 36 39 37
internal_value=0 -0.082557 0.19375 -0.37383
internal_count=178 138 65 73
cat_boundaries=0 1 2 3 4
cat_threshold=2 4 8192 8192
shrinkage=0.1


Tree=35
num_leaves=6
num_cat=5
split_feature=6 6 0 10 0
split_gain=12.6699 2.50778 0.0379401 0.00228416 0.000433982
threshold=0 1 2 3 4
decision_type=5 5 1 1 1
left_child=2 -2 -1 4 -3
right_child=1 3 -4 -5 -6
leaf_value=0.068950879482598204 -0.0078776260789772175 -0.058937178418633641 0.059488423027195564 -0.060405691158947096 -0.057887063443905207
leaf_count=20 40 30 20 32 36
internal_value=0 -0.390397 0.638303 -0.590961 -0.583816
internal_count=178 138 40 98 66
cat_boundaries=0 1 2 3 4 5
cat_threshold=1 2 8192 2 8192
shrinkage=0.1


Tree=36
num_leaves=6
num_cat=5
split_feature=6 6 0 0 0
split_gain=6.2315 5.41304 3.032 0.974368 0.00010213
threshold=0 1 2 3 4
decision_type=5 5 1 1 1
left_child=-1 4 -3 -4 -2
right_child=1 2 3 -5 -6
leaf_value=-0.067584690354847363 -0.058092789566919482 0.059232585373438354 -0.02851436815041878 0.018751882498019273 -0.057398437555558603
leaf_count=40 20 42 25 31 20
internal_value=0 0.145718 0.305129 0.0307005 -0.577546
internal_count=178 138 98 56 40
cat_boundaries=0 1 2 3 4 5
cat_threshold=2 1 8192 4096 8192
shrinkage=0.1


Tree=37
num_leaves=7
num_cat=6
split_feature=0 0 11 11 8 5
split_gain=4.20945 5.41132 1.63793 3.9811 0.560485 0.279341
threshold=0 1 2 3 4 5
decision_type=1 1 5 5 5 5
left_child=4 -2 -3 -4 5 -1
right_child=1 2 3 -5 -6 -7
leaf_value=-0.050527082646734084 -0.060654108633493901 0.064914445942521506 0.059071536492463661 -0.03064748774563765 -0.003083038644822705 -0.023100083987822137
leaf_count=27 22 37 28 21 20 23
internal_value=0 0.265804 0.411095 0.223095 -0.276763 -0.382761
internal_count=178 108 86 49 70 50
cat_boundaries=0 1 2 3 4 5 6
cat_threshold=8192 16384 4 8 2 4
shrinkage=0.1


Tree=38
num_leaves=6
num_cat=5
split_feature=6 6 0 10 11
split_gain=11.1442 2.47225 0.04535 0.00209316 0.00033034
threshold=0 1 2 3 4
decision_type=5 5 1 1 5
left_child=2 -2 -1 4 -3
right_child=1 3 -4 -5 -6
leaf_value=0.066759022056716827 -0.0067334109870074658 -0.057147235317290601 0.056182028198543621 -0.059670412738872983 -0.058098908544593278
leaf_count=20 40 30 20 32 36
internal_value=0 -0.375432 0.609458 -0.583873 -0.576769
internal_count=178 138 40 98 66
cat_boundaries=0 1 2 3 4 5
cat_threshold=1 2 8192 2 8
shrinkage=0.1


Tree=39
num_leaves=6
num_cat=5
split_feature=6 6 0 10 0
split_gain=5.7638 4.77556 2.59759 0.92054 5.36856e-05
threshold=0 1 2 3 4
decision_type=5 5 1 1 1
left_child=-1 4 -3 -4 -2
right_child=1 2 3 -5 -6
leaf_value=-0.066870089232016358 -0.057264862971228014 0.055877705929063375 -0.025042201978506741 0.02024774391172663 -0.0567410979820204
leaf_count=40 20 42 20 36 20
internal_value=0 0.139831 0.288883 0.0308546 -0.570085
internal_count=178 138 98 56 40
cat_boundaries=0 1 2 3 4 5
cat_threshold=2 1 8192 1 8192
shrinkage=0.1


Tree=40
num_leaves=6
num_cat=5
split_feature=6 6 0 10 0
split_gain=3.67235 3.17086 2.33035 0.425225 0.317156
threshold=0 1 2 3 4
decision_type=5 5 1 1 1
left_child=-1 2 -2 -3 -5
right_child=1 3 -4 4 -6
leaf_value=0.046519641453189514 -0.025113117680576325 -0.013056849306856631 0.042023816206783533 -0.060857479740138179 -0.031517676314452243
leaf_count=40 26 22 39 26 25
internal_value=0 -0.0715349 0.187851 -0.34729 -0.438602
internal_count=178 138 65 73 51
cat_boundaries=0 1 2 3 4 5
cat_threshold=2 4 8192 2 8192
shrinkage=0.1


Tree=41
num_leaves=6
num_cat=5
split_feature=6 6 0 10 11
split_gain=9.97801 2.35672 0.0500515 0.00168713 0.000274857
threshold=0 1 2 3 4
decision_type=5 5 1 1 5
left_child=2 -2 -1 -3 -5
right_child=1 3 -4 4 -6
leaf_value=0.06509149933073223 -0.006463821929855066 -0.058896084720035907 0.05374420277509543 -0.0565466454067938 -0.057444655628693164
leaf_count=20 40 32 20 30 36
internal_value=0 -0.362991 0.587746 -0.577071 -0.570466
internal_count=178 138 40 98 66
cat_boundaries=0 1 2 3 4 5
cat_threshold=1 2 8192 1 8
shrinkage=0.1


Tree=42
num_leaves=6
num_cat=5
split_feature=6 6 0 10 0
split_gain=5.24732 4.22158 2.25068 0.843293 2.79198e-05
threshold=0 1 2 3 4
decision_type=5 5 1 1 1
left_child=-1 4 -3 -4 -2
right_child=1 2 3 -5 -6
leaf_value=-0.065793537920116468 -0.056556479066065396 0.052770921496493463 -0.024111195104618427 0.019558757995210271 -0.056164177281785133
leaf_count=40 20 42 20 36 20
internal_value=0 0.132875 0.271421 0.0307526 -0.563633
internal_count=178 138 98 56 40
cat_boundaries=0 1 2 3 4 5
cat_threshold=2 1 8192 1 8192
shrinkage=0.1


Tree=43
num_leaves=7
num_cat=6
split_feature=0 0 11 11 8 5
split_gain=3.15269 4.86236 1.50711 3.38223 0.550818 0.260645
threshold=0 1 2 3 4 5
decision_type=1 1 5 5 5 5
left_child=4 -2 -3 -4 5 -1
right_child=1 2 3 -5 -6 -7
leaf_value=-0.047929233399768414 -0.060246524958263173 0.0616141726148903 0.054809854242919398 -0.029842565423965652 0.00041540838812572311 -0.02033342620180574
leaf_count=27 22 37 28 21 20 23
internal_value=0 0.24088 0.382499 0.197448 -0.243889 -0.35487
internal_count=178 108 86 49 70 50
cat_boundaries=0 1 2 3 4 5 6
cat_threshold=8192 16384 4 8 2 4
shrinkage=0.1


Tree=44
num_leaves=6
num_cat=5
split_feature=6 6 0 10 11
split_gain=8.74605 2.32499 0.0584694 0.00157557 0.000238353
threshold=0 1 2 3 4
decision_type=5 5 1 1 5
left_child=2 -2 -1 -3 -5
right_child=1 3 -4 4 -6
leaf_value=0.063356557676891065 -0.005388596281609731 -0.058308135029806529 0.05076267411477782 -0.05598527027311026 -0.056850956273810122
leaf_count=20 40 32 20 30 36
internal_value=0 -0.348595 0.562279 -0.571321 -0.56468
internal_count=178 138 40 98 66
cat_boundaries=0 1 2 3 4 5
cat_threshold=1 2 8192 1 8
shrinkage=0.1


Tree=45
num_leaves=6
num_cat=5
split_feature=6 6 0 10 0
split_gain=4.86032 3.73298 1.93779 0.744972 1.14395e-05
threshold=0 1 2 3 4
decision_type=5 5 1 1 1
left_child=-1 4 -3 -4 -2
right_child=1 2 3 -5 -6
leaf_value=-0.065180858421555396 -0.055894785569718011 0.049931798320017783 -0.02284405830406817 0.018776755533160262 -0.055633285381194809
leaf_count=40 20 42 20 36 20
internal_value=0 0.127238 0.256815 0.0309043 -0.557653
internal_count=178 138 98 56 40
cat_boundaries=0 1 2 3 4 5
cat_threshold=2 1 8192 1 8192
shrinkage=0.1


Tree=46
num_leaves=7
num_cat=6
split_feature=6 0 0 11 11 0
split_gain=2.91141 3.60327 4.59081 1.07615 0.175044 0.101959
threshold=0 1 2 3 4 5
decision_type=5 1 1 5 5 1
left_child=5 -2 4 -4 -3 -1
right_child=1 2 3 -5 -6 -7
leaf_value=-0.055339081909767884 -0.060077166168994958 -0.0025359393673721579 0.072944287764558843 0.033559220851661173 -0.024036613304445977 -0.034055505006318293
leaf_count=20 20 20 32 36 30 20
internal_value=0 0.179912 0.274052 0.518261 -0.155607 -0.415574
internal_count=178 138 118 68 50 40
cat_boundaries=0 1 2 3 4 5 6
cat_threshold=1 16384 8192 4 4 8192
shrinkage=0.1


Tree=47
num_leaves=6
num_cat=5
split_feature=6 6 0 10 11
split_gain=7.85088 2.22364 0.0631102 0.00141524 0.000198523
threshold=0 1 2 3 4
decision_type=5 5 1 1 5
left_child=2 -2 -1 -3 -5
right_child=1 3 -4 4 -6
leaf_value=0.062095537911690681 -0.0051347020037735489 -0.057749093755029957 0.048705042746628159 -0.056321748761428349 -0.055506002448564955
leaf_count=20 40 32 20 35 31
internal_value=0 -0.337065 0.544171 -0.566021 -0.559482
internal_count=178 138 40 98 66
cat_boundaries=0 1 2 3 4 5
cat_threshold=1 2 8192 1 4
shrinkage=0.1


Tree=48
num_leaves=6
num_cat=5
split_feature=6 6 0 10 0
split_gain=4.48938 3.3258 1.69472 0.669211 3.70316e-06
threshold=0 1 2 3 4
decision_type=5 5 1 1 1
left_child=-1 4 -3 -4 -2
right_child=1 2 3 -5 -6
leaf_value=-0.064600081638148441 -0.05532204600721894 0.047463154651759779 -0.021891475969533766 0.0180756326594869 -0.05516738256539773
leaf_count=40 20 42 20 36 20
internal_value=0 0.122111 0.243742 0.0300154 -0.552449
internal_count=178 138 98 56 40
cat_boundaries=0 1 2 3 4 5
cat_threshold=2 1 8192 1 8192
shrinkage=0.1


Tree=49
num_leaves=6
num_cat=5
split_feature=0 0 11 11 10
split_gain=2.70201 3.81191 1.33957 2.86524 0.56167
threshold=0 1 2 3 4
decision_type=1 1 5 5 1
left_child=-1 4 -3 -4 -2
right_child=1 2 3 -5 -6
leaf_value=-0.059353114475938586 -0.0021475666334525027 0.05822013145824128 0.050963766284624228 -0.028848520863182864 -0.036965903297202472
leaf_count=22 32 37 28 21 38
internal_value=0 0.149814 0.354346 0.175985 -0.21108
internal_count=178 156 86 49 70
cat_boundaries=0 1 2 3 4 5
cat_threshold=16384 8192 4 8 2
shrinkage=0.1


Tree=50
num_leaves=7
num_cat=6
split_feature=10 11 11 8 0 6
split_gain=7.27024 5.67348 4.57139 0.0339802 0.0277788 0.00310593
threshold=0 1 2 3 4 5
decision_type=1 5 5 5 1 5
left_child=3 -2 -3 5 -4 -1
right_child=1 2 4 -5 -6 -7
leaf_value=-0.055523312690280172 -0.059254680497082268 -0.01924083602890175 0.081600435699902593 -0.066791459816629747 0.073055777435312164 -0.05879444208519622
leaf_count=39 29 22 21 23 22 22
internal_value=0 0.225264 0.460808 -0.599178 0.766855 -0.569745
internal_count=178 94 65 84 43 61
cat_boundaries=0 1 2 3 4 5 6
cat_threshold=2 8 4 2 8192 4
shrinkage=0.1


Tree=51
num_leaves=6
num_cat=5
split_feature=6 6 0 11 0
split_gain=4.15457 2.95542 1.47291 0.659553 4.51278e-06
threshold=0 1 2 3 4
decision_type=5 5 1 5 1
left_child=-1 4 -3 -4 -2
right_child=1 2 3 -5 -6
leaf_value=-0.063953664382918968 -0.054857187892229854 0.045096192416796306 -0.019788736042389767 0.019707263547339451 -0.054679134970610693
leaf_count=40 20 42 24 32 20
internal_value=0 0.118089 0.231942 0.0299669 -0.547678
internal_count=178 138 98 56 40
cat_boundaries=0 1 2 3 4 5
cat_threshold=2 1 8192 4 8192
shrinkage=0.1


Tree=52
num_leaves=7
num_cat=6
split_feature=0 0 11 11 8 5
split_gain=2.5416 3.27897 1.17005 2.45447 0.534049 0.277244
threshold=0 1 2 3 4 5
decision_type=1 1 5 5 5 5
left_child=-1 4 -3 -4 5 -2
right_child=1 2 3 -5 -6 -7
leaf_value=-0.058912331489800351 -0.044668705196454127 0.055587175270379721 0.048619066783107186 -0.026453101614028241 0.0058196340059243033 -0.014520824626784735
leaf_count=22 27 37 28 21 20 23
internal_value=0 0.147309 0.340032 0.170229 -0.192905 -0.310509
internal_count=178 156 86 49 70 50
cat_boundaries=0 1 2 3 4 5 6
cat_threshold=16384 8192 4 8 2 4
shrinkage=0.1


Tree=53
num_leaves=7
num_cat=6
split_feature=10 11 11 0 8 6
split_gain=6.62664 5.10829 4.03505 0.0398408 0.0351938 0.00225627
threshold=0 1 2 3 4 5
decision_type=1 5 5 1 5 5
left_child=1 -1 -3 -4 5 -2
right_child=4 2 3 -5 -6 -7
leaf_value=-0.058637844991519729 -0.055071449053566257 -0.017683479314477685 0.079406707071168953 0.068968795793783955 -0.066649708193974616 -0.05796249893008254
leaf_count=29 39 22 21 22 23 22
internal_value=0 0.214306 0.43841 0.733265 -0.594854 -0.563573
internal_count=178 94 65 43 84 61
cat_boundaries=0 1 2 3 4 5 6
cat_threshold=1 8 4 8192 2 4
shrinkage=0.1


Tree=54
num_leaves=5
num_cat=4
split_feature=6 5 0 0
split_gain=3.8204 2.65122 1.58909 4.42549
threshold=0 1 2 3
decision_type=5 5 1 1
left_child=-1 -2 -3 -4
right_child=1 2 3 -5
leaf_value=-0.063299404414381838 -0.05698490426818479 0.063101331798551208 0.04341420698944317 -0.042224024433356475
leaf_count=40 37 20 43 38
internal_value=0 0.112706 0.216399 0.0985386
internal_count=178 138 101 81
cat_boundaries=0 1 2 3 4
cat_threshold=2 2 16384 8192
shrinkage=0.1


Tree=55
num_leaves=6
num_cat=5
split_feature=0 0 11 11 10
split_gain=2.39316 2.81868 0.993304 2.12631 0.548136
threshold=0 1 2 3 4
decision_type=1 1 5 5 1
left_child=-1 4 -3 -4 -2
right_child=1 2 3 -5 -6
leaf_value=-0.05843209204297313 0.0016553895345473191 0.052897534452345164 0.046765648468766727 -0.024168832471837903 -0.033868243374338358
leaf_count=22 32 37 28 21 38
internal_value=0 0.145107 0.326642 0.167821 -0.175673
internal_count=178 156 86 49 70
cat_boundaries=0 1 2 3 4 5
cat_threshold=16384 8192 4 8 2
shrinkage=0.1


Tree=56
num_leaves=7
num_cat=6
split_feature=10 11 11 0 8 6
split_gain=6.11286 4.59373 3.55829 0.0532524 0.0358426 0.00163669
threshold=0 1 2 3 4 5
decision_type=1 5 5 1 5 5
left_child=1 -1 -3 -4 5 -2
right_child=4 2 3 -5 -6 -7
leaf_value=-0.057996636979607233 -0.054696541873999985 -0.015979866462772857 0.077535268772336297 0.065236372318153699 -0.06651682646638063 -0.057244616194377089
leaf_count=29 39 22 21 22 23 22
internal_value=0 0.206967 0.41926 0.703021 -0.591188 -0.558316
internal_count=178 94 65 43 84 61
cat_boundaries=0 1 2 3 4 5 6
cat_threshold=1 8 4 8192 2 4
shrinkage=0.1


Tree=57
num_leaves=5
num_cat=4
split_feature=6 5 0 0
split_gain=3.53897 2.39991 1.38536 3.84038
threshold=0 1 2 3
decision_type=5 5 1 1
left_child=-1 -2 -3 -4
right_child=1 2 3 -5
leaf_value=-0.062724767721344263 -0.056783646234228692 0.060891399339559206 0.041381894436183127 -0.040221872887669485
leaf_count=40 37 20 43 38
internal_value=0 0.110007 0.209339 0.0978128
internal_count=178 138 101 81
cat_boundaries=0 1 2 3 4
cat_threshold=2 2 16384 8192
shrinkage=0.1


Tree=58
num_leaves=6
num_cat=5
split_feature=0 6 0 11 11
split_gain=2.14419 2.58627 2.615 0.938671 0.132834
threshold=0 1 2 3 4
decision_type=1 5 1 5 5
left_child=-1 -2 4 -4 -3
right_child=1 2 3 -5 -6
leaf_value=-0.057669533861226911 -0.037620176451032938 0.0026079460150346119 0.066493486430599089 0.026935885584425768 -0.016991769252759192
leaf_count=22 38 20 32 36 30
internal_value=0 0.139137 0.246628 0.447036 -0.0911457
internal_count=178 156 118 68 50
cat_boundaries=0 1 2 3 4 5
cat_threshold=16384 1 8192 4 4
shrinkage=0.1


Tree=59
num_leaves=7
num_cat=6
split_feature=10 11 11 0 8 6
split_gain=5.615 4.12244 3.14061 0.0640202 0.0363916 0.00114417
threshold=0 1 2 3 4 5
decision_type=1 5 5 1 5 5
left_child=1 -1 -3 -4 5 -2
right_child=4 2 3 -5 -6 -7
leaf_value=-0.057341672741856503 -0.054351594083161862 -0.014382294440159477 0.075624948830916694 0.061860616303821794 -0.066461338065417805 -0.056563883906211344
leaf_count=29 39 22 21 22 23 22
internal_value=0 0.199762 0.400612 0.674365 -0.587935 -0.553369
internal_count=178 94 65 43 84 61
cat_boundaries=0 1 2 3 4 5 6
cat_threshold=1 8 4 8192 2 4
shrinkage=0.1


Tree=60
num_leaves=6
num_cat=5
split_feature=6 6 0 10 0
split_gain=3.25613 2.20315 0.940247 0.566901 2.25787e-05
threshold=0 1 2 3 4
decision_type=5 5 1 1 1
left_child=-1 4 -3 -4 -2
right_child=1 2 3 -5 -6
leaf_value=-0.062187171768505335 -0.054337569566699821 0.039010698421723583 0.018682267760364364 -0.021152312415711597 -0.053891758542279559
leaf_count=40 20 42 36 20 20
internal_value=0 0.106691 0.206912 0.0322703 -0.541093
internal_count=178 138 98 56 40
cat_boundaries=0 1 2 3 4 5
cat_threshold=2 1 8192 2 8192
shrinkage=0.1


Tree=61
num_leaves=6
num_cat=5
split_feature=0 6 0 11 11
split_gain=1.92433 2.27157 2.23753 0.913617 0.111829
threshold=0 1 2 3 4
decision_type=1 5 1 5 5
left_child=-1 -2 4 -4 -3
right_child=1 2 3 -5 -6
leaf_value=-0.056981849773267659 -0.036193806321529652 0.002915395752654093 0.064946909802309952 0.024991730238313213 -0.015228283656799466
leaf_count=22 38 20 32 36 30
internal_value=0 0.133763 0.23569 0.426563 -0.0786607
internal_count=178 156 118 68 50
cat_boundaries=0 1 2 3 4 5
cat_threshold=16384 1 8192 4 4
shrinkage=0.1


Tree=62
num_leaves=7
num_cat=6
split_feature=10 11 11 0 8 6
split_gain=5.15797 3.72754 2.8634 0.0676165 0.0370417 0.000774296
threshold=0 1 2 3 4 5
decision_type=1 5 5 1 5 5
left_child=4 -2 -3 -4 5 -1
right_child=1 2 3 -5 -6 -7
leaf_value=-0.054050563308470335 -0.0567804444849416 -0.013831783458656389 0.074017787855500533 0.059553184229805149 -0.066495674242874156 -0.055941274200242766
leaf_count=39 29 22 21 22 23 22
internal_value=0 0.192932 0.384829 0.653259 -0.585278 -0.548901
internal_count=178 94 65 43 84 61
cat_boundaries=0 1 2 3 4 5 6
cat_threshold=2 8 4 8192 2 4
shrinkage=0.1


Tree=63
num_leaves=5
num_cat=4
split_feature=6 5 0 0
split_gain=2.99447 2.02636 1.17984 3.0389
threshold=0 1 2 3
decision_type=5 5 1 1
left_child=-1 -2 -3 -4
right_child=1 2 3 -5
leaf_value=-0.061700247663441378 -0.056965309947439424 0.058420233798293454 0.037969093149489375 -0.037345873451196727
leaf_count=40 37 20 43 38
internal_value=0 0.10223 0.19454 0.0891328
internal_count=178 138 101 81
cat_boundaries=0 1 2 3 4
cat_threshold=2 2 16384 8192
shrinkage=0.1


Tree=64
num_leaves=6
num_cat=5
split_feature=0 6 0 11 11
split_gain=1.81193 2.02743 1.94207 0.892235 0.0958603
threshold=0 1 2 3 4
decision_type=1 5 1 5 5
left_child=-1 -2 4 -4 -3
right_child=1 2 3 -5 -6
leaf_value=-0.056655976145092019 -0.034820465286237591 0.0034260161218647349 0.06385623968941409 0.023580470414815331 -0.013521667886963068
leaf_count=22 38 20 32 36 30
internal_value=0 0.13207 0.22913 0.411098 -0.0658479
internal_count=178 156 118 68 50
cat_boundaries=0 1 2 3 4 5
cat_threshold=16384 1 8192 4 4
shrinkage=0.1


Tree=65
num_leaves=7
num_cat=6
split_feature=10 11 11 0 8 6
split_gain=4.72443 3.39875 2.61878 0.071024 0.0374253 0.000550535
threshold=0 1 2 3 4 5
decision_type=1 5 5 1 5 5
left_child=1 -1 -3 -4 5 -2
right_child=4 2 3 -5 -6 -7
leaf_value=-0.056387984289684771 -0.053750303391563184 -0.013502389536354782 0.072494427221781885 0.057316226374247353 -0.066512197050908856 -0.055405017838889306
leaf_count=29 39 22 21 22 23 22
internal_value=0 0.183854 0.368904 0.63283 -0.583021 -0.544836
internal_count=178 94 65 43 84 61
cat_boundaries=0 1 2 3 4 5 6
cat_threshold=1 8 4 8192 2 4
shrinkage=0.1


Tree=66
num_leaves=5
num_cat=4
split_feature=6 5 0 0
split_gain=2.75998 1.85077 1.03675 2.64068
threshold=0 1 2 3
decision_type=5 5 1 1
left_child=-1 -2 -3 -4
right_child=1 2 3 -5
leaf_value=-0.061259159545919387 -0.056859766239730748 0.056682843227832236 0.036246693856842573 -0.035493059845463124
leaf_count=40 37 20 43 38
internal_value=0 0.099054 0.188131 0.0884221
internal_count=178 138 101 81
cat_boundaries=0 1 2 3 4
cat_threshold=2 2 16384 8192
shrinkage=0.1


Tree=67
num_leaves=6
num_cat=5
split_feature=0 6 0 11 11
split_gain=1.62775 1.78702 1.6592 0.870548 0.0782978
threshold=0 1 2 3 4
decision_type=1 5 1 5 5
left_child=-1 -2 4 -4 -3
right_child=1 2 3 -5 -6
leaf_value=-0.056063968440148895 -0.03347914947234245 0.0036031231919455269 0.062622966149442197 0.021846164104885633 -0.011842859592723897
leaf_count=22 38 20 32 36 30
internal_value=0 0.12705 0.219369 0.392734 -0.0546241
internal_count=178 156 118 68 50
cat_boundaries=0 1 2 3 4 5
cat_threshold=16384 1 8192 4 4
shrinkage=0.1


Tree=68
num_leaves=8
num_cat=7
split_feature=10 11 11 0 8 5 0
split_gain=4.35538 3.08074 2.39172 0.0737493 0.0377538 0.000399161 0.000126797
threshold=0 1 2 3 4 5 6
decision_type=1 5 5 1 5 5 1
left_child=4 -2 -3 -4 5 6 -1
right_child=1 2 3 -5 -6 -7 -8
leaf_value=-0.052987735692775179 -0.055906874166413961 -0.012977113793675672 0.071086876610265123 0.055262543043016733 -0.066616558231699138 -0.055058927262891244 -0.054031614604483372
leaf_count=20 29 22 21 22 23 20 21
internal_value=0 0.177843 0.354795 0.613878 -0.58129 -0.541262 -0.535595
internal_count=178 94 65 43 84 61 41
cat_boundaries=0 1 2 3 4 5 6 7
cat_threshold=2 8 4 8192 2 4 8192
shrinkage=0.1


Tree=69
num_leaves=6
num_cat=5
split_feature=6 6 0 10 0
split_gain=2.54628 1.70216 0.610831 0.520969 6.80983e-05
threshold=0 1 2 3 4
decision_type=5 5 1 1 1
left_child=-1 4 -3 -4 -2
right_child=1 2 3 -5 -6
leaf_value=-0.06085945377017208 -0.054269601721366412 0.033998514053846518 -0.0212852567991774 0.019619768180246324 -0.053411088611806767
leaf_count=40 20 42 20 36 20
internal_value=0 0.0959292 0.186435 0.0331623 -0.538197
internal_count=178 138 98 56 40
cat_boundaries=0 1 2 3 4 5
cat_threshold=2 1 8192 1 8192
shrinkage=0.1


Tree=70
num_leaves=6
num_cat=5
split_feature=0 6 0 11 11
split_gain=1.46353 1.57786 1.41651 0.849708 0.0627155
threshold=0 1 2 3 4
decision_type=1 5 1 5 5
left_child=-1 -2 4 -4 -3
right_child=1 2 3 -5 -6
leaf_value=-0.055527917516695585 -0.03217808323749359 0.0037206376325732795 0.061528667678905573 0.020217457541113898 -0.010216846013927951
leaf_count=22 38 20 32 36 30
internal_value=0 0.122252 0.210181 0.375329 -0.044087
internal_count=178 156 118 68 50
cat_boundaries=0 1 2 3 4 5
cat_threshold=16384 1 8192 4 4
shrinkage=0.1


Tree=71
num_leaves=8
num_cat=7
split_feature=10 11 11 0 8 5 0
split_gain=4.02219 2.79602 2.18586 0.0762386 0.0379167 0.00032588 0.000101599
threshold=0 1 2 3 4 5 6
decision_type=1 5 5 1 5 5 1
left_child=1 -1 -3 -4 5 6 -2
right_child=4 2 3 -5 -6 -7 -8
leaf_value=-0.055467336376738278 -0.052744839158011737 -0.012466427113788994 0.069769441027446907 0.053305900728871008 -0.066745259190557002 -0.054684375009996893 -0.053714906070447502
leaf_count=29 20 22 21 22 23 20 21
internal_value=0 0.172143 0.341391 0.595786 -0.579949 -0.538076 -0.532765
internal_count=178 94 65 43 84 61 41
cat_boundaries=0 1 2 3 4 5 6 7
cat_threshold=1 8 4 8192 2 4 8192
shrinkage=0.1


Tree=72
num_leaves=5
num_cat=4
split_feature=6 5 0 0
split_gain=2.3484 1.5897 0.885932 2.08533
threshold=0 1 2 3
decision_type=5 5 1 1
left_child=-1 -2 -3 -4
right_child=1 2 3 -5
leaf_value=-0.060496893093386274 -0.057228901754646566 0.054783807914891049 0.033297017328597904 -0.032748488060078705
leaf_count=40 37 20 43 38
internal_value=0 0.0917723 0.1755 0.081788
internal_count=178 138 101 81
cat_boundaries=0 1 2 3 4
cat_threshold=2 2 16384 8192
shrinkage=0.1


Tree=73
num_leaves=6
num_cat=5
split_feature=0 6 0 11 11
split_gain=1.37784 1.41623 1.22787 0.830179 0.051418
threshold=0 1 2 3 4
decision_type=1 5 1 5 5
left_child=-1 -2 4 -4 -3
right_child=1 2 3 -5 -6
leaf_value=-0.055274324314825145 -0.030931681870288105 0.004055723963038587 0.060766030730630638 0.019068640662423045 -0.0086661428565051012
leaf_count=22 38 20 32 36 30
internal_value=0 0.120737 0.204825 0.362284 -0.033225
internal_count=178 156 118 68 50
cat_boundaries=0 1 2 3 4 5
cat_threshold=16384 1 8192 4 4
shrinkage=0.1


Tree=74
num_leaves=8
num_cat=7
split_feature=10 11 11 0 8 5 0
split_gain=3.70009 2.55927 2.00468 0.0789246 0.0377536 0.000241164 8.67554e-05
threshold=0 1 2 3 4 5 6
decision_type=1 5 5 1 5 5 1
left_child=4 -2 -3 -4 5 6 -1
right_child=1 2 3 -5 -6 -7 -8
leaf_value=-0.052526781194484055 -0.055164767306319799 -0.012190497106791057 0.068525973090522024 0.051364166388089216 -0.066817166252907637 -0.054295731689943831 -0.053455716594805483
leaf_count=20 29 22 21 22 23 20 21
internal_value=0 0.16402 0.327489 0.577979 -0.578743 -0.535095 -0.530376
internal_count=178 94 65 43 84 61 41
cat_boundaries=0 1 2 3 4 5 6 7
cat_threshold=2 8 4 8192 2 4 8192
shrinkage=0.1


Tree=75
num_leaves=5
num_cat=4
split_feature=6 5 0 0
split_gain=2.17065 1.46133 0.780769 1.8074
threshold=0 1 2 3
decision_type=5 5 1 1
left_child=-1 -2 -3 -4
right_child=1 2 3 -5
leaf_value=-0.060167218669038208 -0.057167446964908386 0.053337428066815323 0.031780372423650984 -0.030976138914722524
leaf_count=40 37 20 43 38
internal_value=0 0.0887873 0.169878 0.0814912
internal_count=178 138 101 81
cat_boundaries=0 1 2 3 4
cat_threshold=2 2 16384 8192
shrinkage=0.1


Tree=76
num_leaves=6
num_cat=5
split_feature=0 6 0 11 11
split_gain=1.23974 1.25517 1.04619 0.810075 0.0393529
threshold=0 1 2 3 4
decision_type=1 5 1 5 5
left_child=-1 -2 4 -4 -3
right_child=1 2 3 -5 -6
leaf_value=-0.054810757839634107 -0.029718517954795284 0.0040655039369891241 0.059874965314999751 0.017608383925652362 -0.0071505595937958874
leaf_count=22 38 20 32 36 30
internal_value=0 0.116162 0.196463 0.346322 -0.0240116
internal_count=178 156 118 68 50
cat_boundaries=0 1 2 3 4 5
cat_threshold=16384 1 8192 4 4
shrinkage=0.1


Tree=77
num_leaves=8
num_cat=7
split_feature=10 11 11 0 8 5 0
split_gain=3.42762 2.32786 1.83426 0.0811285 0.0375734 0.000203372 6.9971e-05
threshold=0 1 2 3 4 5 6
decision_type=1 5 5 1 5 5 1
left_child=1 -1 -3 -4 5 6 -2
right_child=4 2 3 -5 -6 -7 -8
leaf_value=-0.054786166003999971 -0.052327525245801365 -0.011707401838319783 0.067377055831299423 0.049567836218914814 -0.066967830958067687 -0.05400427779833851 -0.053193336647597324
leaf_count=29 20 22 21 22 23 20 21
internal_value=0 0.158908 0.315311 0.561334 -0.577993 -0.532529 -0.528037
internal_count=178 94 65 43 84 61 41
cat_boundaries=0 1 2 3 4 5 6 7
cat_threshold=1 8 4 8192 2 4 8192
shrinkage=0.1


Tree=78
num_leaves=6
num_cat=5
split_feature=6 6 0 10 0
split_gain=2.00832 1.34778 0.394276 0.503745 0.000154975
threshold=0 1 2 3 4
decision_type=5 5 1 1 1
left_child=-1 4 -3 -4 -2
right_child=1 2 3 -5 -6
leaf_value=-0.059866549312924434 -0.054523676626821088 0.029631076368874711 0.02109921652167138 -0.02202926751783478 -0.053097035554832875
leaf_count=40 20 42 36 20 20
internal_value=0 0.0858536 0.168791 0.0343873 -0.537613
internal_count=178 138 98 56 40
cat_boundaries=0 1 2 3 4 5
cat_threshold=2 1 8192 2 8192
shrinkage=0.1


Tree=79
num_leaves=6
num_cat=5
split_feature=0 6 0 11 11
split_gain=1.11636 1.11455 0.89062 0.789928 0.029171
threshold=0 1 2 3 4
decision_type=1 5 1 5 5
left_child=-1 -2 4 -4 -3
right_child=1 2 3 -5 -6
leaf_value=-0.054390201403875994 -0.028548928600604907 0.0040297128144424176 0.05907738659132758 0.016237131111730349 -0.005699929820716914
leaf_count=22 38 20 32 36 30
internal_value=0 0.111759 0.18853 0.331066 -0.0154856
internal_count=178 156 118 68 50
cat_boundaries=0 1 2 3 4 5
cat_threshold=16384 1 8192 4 4
shrinkage=0.1


Tree=80
num_leaves=8
num_cat=7
split_feature=10 11 11 0 8 5 0
split_gain=3.17996 2.11991 1.67916 0.0832952 0.037215 0.000174632 5.68227e-05
threshold=0 1 2 3 4 5 6
decision_type=1 5 5 1 5 5 1
left_child=1 -1 -3 -4 5 6 -2
right_child=4 2 3 -5 -6 -7 -8
leaf_value=-0.054440064879466725 -0.052146963778287196 -0.01123993877270069 0.066305811459740113 0.047835214961046396 -0.067118768696799863 -0.053748070348420079 -0.052956504437527474
leaf_count=29 20 22 21 22 23 20 21
internal_value=0 0.154009 0.303662 0.545281 -0.577479 -0.530235 -0.525923
internal_count=178 94 65 43 84 61 41
cat_boundaries=0 1 2 3 4 5 6 7
cat_threshold=1 8 4 8192 2 4 8192
shrinkage=0.1


Tree=81
num_leaves=5
num_cat=4
split_feature=6 5 0 0
split_gain=1.85791 1.27479 0.667334 1.4216
threshold=0 1 2 3
decision_type=5 5 1 1
left_child=-1 -2 -3 -4
right_child=1 2 3 -5
leaf_value=-0.059591009094181524 -0.057623570201246491 0.051802844706622435 0.029197542539874478 -0.028330698898858905
leaf_count=40 37 20 43 38
internal_value=0 0.0820438 0.15895 0.0765218
internal_count=178 138 101 81
cat_boundaries=0 1 2 3 4
cat_threshold=2 2 16384 8192
shrinkage=0.1


Tree=82
num_leaves=6
num_cat=5
split_feature=0 6 0 11 11
split_gain=1.0506 1.00653 0.770931 0.770526 0.0222776
threshold=0 1 2 3 4
decision_type=1 5 1 5 5
left_child=-1 -2 4 -4 -3
right_child=1 2 3 -5 -6
leaf_value=-0.054194076362990187 -0.027439330767048645 0.0042253584771104183 0.058529892491155366 0.015298313913364539 -0.0043394375934683099
leaf_count=22 38 20 32 36 30
internal_value=0 0.110293 0.183996 0.319763 -0.0066016
internal_count=178 156 118 68 50
cat_boundaries=0 1 2 3 4 5
cat_threshold=16384 1 8192 4 4
shrinkage=0.1


Tree=83
num_leaves=8
num_cat=7
split_feature=10 11 11 0 8 5 0
split_gain=2.93593 1.94715 1.54321 0.0858531 0.0365361 0.000134054 4.84919e-05
threshold=0 1 2 3 4 5 6
decision_type=1 5 5 1 5 5 1
left_child=4 -2 -3 -4 5 6 -1
right_child=1 2 3 -5 -6 -7 -8
leaf_value=-0.051984308319610539 -0.054204661850994498 -0.011018888840256419 0.065301556446736464 0.046084126457416226 -0.067189593419270263 -0.053463234008939278 -0.052758879655633417
leaf_count=20 29 22 21 22 23 20 21
internal_value=0 0.146576 0.291248 0.529254 -0.576913 -0.528014 -0.524114
internal_count=178 94 65 43 84 61 41
cat_boundaries=0 1 2 3 4 5 6 7
cat_threshold=2 8 4 8192 2 4 8192
shrinkage=0.1


Tree=84
num_leaves=5
num_cat=4
split_feature=6 5 0 0
split_gain=1.72232 1.17833 0.588563 1.22778
threshold=0 1 2 3
decision_type=5 5 1 1
left_child=-1 -2 -3 -4
right_child=1 2 3 -5
leaf_value=-0.059336544225393528 -0.057564446756957537 0.050527422124177095 0.027852948395274902 -0.026629652338712718
leaf_count=40 37 20 43 38
internal_value=0 0.0792774 0.153929 0.0765009
internal_count=178 138 101 81
cat_boundaries=0 1 2 3 4
cat_threshold=2 2 16384 8192
shrinkage=0.1


Tree=85
num_leaves=6
num_cat=5
split_feature=0 6 0 11 11
split_gain=0.946628 0.897495 0.65492 0.750216 0.0176627
threshold=0 1 2 3 4
decision_type=1 5 1 5 5
left_child=-1 -2 4 -4 -3
right_child=1 2 3 -5 -6
leaf_value=-0.053829331108787751 -0.026366245809529665 0.0047451865648464979 0.057869518206925222 0.014068468708327909 -0.0030294954749129533
leaf_count=22 38 24 32 36 26
internal_value=0 0.10604 0.176672 0.305592 0.00062703
internal_count=178 156 118 68 50
cat_boundaries=0 1 2 3 4 5
cat_threshold=16384 1 8192 4 8
shrinkage=0.1


Tree=86
num_leaves=8
num_cat=7
split_feature=10 11 11 0 8 5 0
split_gain=2.73105 1.77677 1.41386 0.0879661 0.0358507 0.00011875 3.97103e-05
threshold=0 1 2 3 4 5 6
decision_type=1 5 5 1 5 5 1
left_child=4 -2 -3 -4 5 6 -1
right_child=1 2 3 -5 -6 -7 -8
leaf_value=-0.051834736398897276 -0.053905145039400443 -0.010579452757254033 0.064374745843480616 0.044462699187164514 -0.067323708482785613 -0.05326370142625169 -0.052561678898653479
leaf_count=20 29 22 21 22 23 20 21
internal_value=0 0.142118 0.280542 0.514222 -0.576731 -0.526156 -0.522354
internal_count=178 94 65 43 84 61 41
cat_boundaries=0 1 2 3 4 5 6 7
cat_threshold=2 8 4 8192 2 4 8192
shrinkage=0.1


Tree=87
num_leaves=7
num_cat=6
split_feature=6 6 6 10 11 0
split_gain=1.6007 1.09348 0.290589 0.490133 0.228583 0.000284647
threshold=0 1 2 3 4 5
decision_type=5 5 5 1 5 1
left_child=-1 5 3 -3 -5 -2
right_child=1 2 -4 4 -6 -7
leaf_value=-0.059117952736806693 -0.0550050609738457 -0.02101093940618555 0.03109899493098536 0.0061090111186415576 0.03886219523824061 -0.052891228505029225
leaf_count=40 20 20 33 24 21 20
internal_value=0 0.0767778 0.153678 0.0637493 0.200688 -0.538577
internal_count=178 138 98 65 45 40
cat_boundaries=0 1 2 3 4 5 6
cat_threshold=2 1 4 1 4 8192
shrinkage=0.1


Tree=88
num_leaves=6
num_cat=5
split_feature=0 6 0 11 11
split_gain=0.853561 0.801783 0.556134 0.729612 0.0202511
threshold=0 1 2 3 4
decision_type=1 5 1 5 5
left_child=-1 -2 4 -4 -3
right_child=1 2 3 -5 -6
leaf_value=-0.05349814062855332 -0.025340600088706013 0.0057713508467834591 0.057274105213473037 0.01291602186770608 -0.0026138186734288955
leaf_count=22 38 24 32 36 26
internal_value=0 0.1019 0.169628 0.291988 0.00721191
internal_count=178 156 118 68 50
cat_boundaries=0 1 2 3 4 5
cat_threshold=16384 1 8192 4 8
shrinkage=0.1


Tree=89
num_leaves=8
num_cat=7
split_feature=10 11 11 0 8 5 0
split_gain=2.54338 1.62172 1.29814 0.0900914 0.0350159 0.000108181 3.27181e-05
threshold=0 1 2 3 4 5 6
decision_type=1 5 5 1 5 5 1
left_child=4 -2 -3 -4 5 6 -1
right_child=1 2 3 -5 -6 -7 -8
leaf_value=-0.051698988504730363 -0.053630337213777593 -0.010206294364048546 0.063513569500050632 0.042887422296146394 -0.067443051577283461 -0.053094836172209663 -0.0523830648794315
leaf_count=20 29 22 21 22 23 20 21
internal_value=0 0.137672 0.270027 0.499616 -0.576693 -0.524516 -0.520759
internal_count=178 94 65 43 84 61 41
cat_boundaries=0 1 2 3 4 5 6 7
cat_threshold=2 8 4 8192 2 4 8192
shrinkage=0.1


Tree=90
num_leaves=5
num_cat=4
split_feature=6 5 0 0
split_gain=1.48793 1.04044 0.487931 0.988008
threshold=0 1 2 3
decision_type=5 5 1 1
left_child=-1 -2 -3 -4
right_child=1 2 3 -5
leaf_value=-0.058915460685552347 -0.057967748236141037 0.048971457318936935 0.025949042418653857 -0.024288707413476735
leaf_count=40 37 20 43 38
internal_value=0 0.0734781 0.144473 0.0746377
internal_count=178 138 101 81
cat_boundaries=0 1 2 3 4
cat_threshold=2 2 16384 8192
shrinkage=0.1


Tree=91
num_leaves=6
num_cat=5
split_feature=0 6 0 11 11
split_gain=0.791061 0.72552 0.496316 0.701044 0.0206696
threshold=0 1 2 3 4
decision_type=1 5 1 5 5
left_child=-1 -2 4 -4 -3
right_child=1 2 3 -5 -6
leaf_value=-0.053281339440924641 -0.024380483127015094 0.006234035123688998 0.05683179154448828 0.01239111746270416 -0.0022746896440881954
leaf_count=22 38 24 32 36 26
internal_value=0 0.0996667 0.164596 0.282835 0.0111784
internal_count=178 156 118 68 50
cat_boundaries=0 1 2 3 4 5
cat_threshold=16384 1 8192 4 8
shrinkage=0.1


Tree=92
num_leaves=8
num_cat=7
split_feature=10 11 11 0 8 5 0
split_gain=2.35573 1.49144 1.19654 0.0925973 0.0339539 8.95741e-05 2.73661e-05
threshold=0 1 2 3 4 5 6
decision_type=1 5 5 1 5 5 1
left_child=4 -2 -3 -4 5 6 -1
right_child=1 2 3 -5 -6 -7 -8
leaf_value=-0.051582710793538815 -0.053419331614584245 -0.010080003435498919 0.062702842345217655 0.041271154021065189 -0.067491546527078464 -0.052901484679677674 -0.052229915521164516
leaf_count=20 29 22 21 22 23 20 21
internal_value=0 0.130722 0.258554 0.484798 -0.576523 -0.522917 -0.519392
internal_count=178 94 65 43 84 61 41
cat_boundaries=0 1 2 3 4 5 6 7
cat_threshold=2 8 4 8192 2 4 8192
shrinkage=0.1


Tree=93
num_leaves=5
num_cat=4
split_feature=6 5 0 0
split_gain=1.38594 0.968433 0.429073 0.85223
threshold=0 1 2 3
decision_type=5 5 1 1
left_child=-1 -2 -3 -4
right_child=1 2 3 -5
leaf_value=-0.058726498944785765 -0.057924482191454976 0.047791407520529794 0.024791563102266597 -0.022668300165542866
leaf_count=40 37 20 43 38
internal_value=0 0.0712072 0.140253 0.0750681
internal_count=178 138 101 81
cat_boundaries=0 1 2 3 4
cat_threshold=2 2 16384 8192
shrinkage=0.1


Tree=94
num_leaves=6
num_cat=5
split_feature=0 6 0 11 11
split_gain=0.713881 0.651363 0.420456 0.680786 0.0231763
threshold=0 1 2 3 4
decision_type=1 5 1 5 5
left_child=-1 -2 4 -4 -3
right_child=1 2 3 -5 -6
leaf_value=-0.052999239313475825 -0.023459468541545018 0.007128815894861318 0.056333703379104899 0.011350167698331649 -0.0019410025055138823
leaf_count=22 38 24 32 36 26
internal_value=0 0.0956986 0.158117 0.270083 0.0167991
internal_count=178 156 118 68 50
cat_boundaries=0 1 2 3 4 5
cat_threshold=16384 1 8192 4 8
shrinkage=0.1


Tree=95
num_leaves=8
num_cat=7
split_feature=10 11 11 0 8 5 0
split_gain=2.19858 1.36369 1.09903 0.0944882 0.0328515 8.38606e-05 2.27802e-05
threshold=0 1 2 3 4 5 6
decision_type=1 5 5 1 5 5 1
left_child=4 -2 -3 -4 5 6 -1
right_child=1 2 3 -5 -6 -7 -8
leaf_value=-0.051468248772241987 -0.053183317865859885 -0.0097285246258390495 0.061946481127606305 0.039786425383770224 -0.067565544423621102 -0.052771338674758132 -0.052080163296026043
leaf_count=20 29 22 21 22 23 20 21
internal_value=0 0.126587 0.248776 0.470906 -0.576621 -0.521581 -0.518051
internal_count=178 94 65 43 84 61 41
cat_boundaries=0 1 2 3 4 5 6 7
cat_threshold=2 8 4 8192 2 4 8192
shrinkage=0.1


Tree=96
num_leaves=6
num_cat=5
split_feature=6 6 8 0 0
split_gain=1.2924 0.908431 0.242135 0.217738 0.000451195
threshold=0 1 2 3 4
decision_type=5 5 5 1 1
left_child=-1 4 3 -3 -2
right_child=1 2 -4 -5 -6
leaf_value=-0.058547421771353962 -0.055640531979315767 0.034048983978893763 -0.0018782819486062444 0.0072240303180539818 -0.052753898713695027
leaf_count=40 20 30 31 37 20
internal_value=0 0.0690402 0.14084 0.222535 -0.540554
internal_count=178 138 98 67 40
cat_boundaries=0 1 2 3 4 5
cat_threshold=2 1 2 8192 8192
shrinkage=0.1


Tree=97
num_leaves=6
num_cat=5
split_feature=0 6 0 11 11
split_gain=0.64478 0.586202 0.355862 0.660239 0.0255873
threshold=0 1 2 3 4
decision_type=1 5 1 5 5
left_child=-1 -2 4 -4 -3
right_child=1 2 3 -5 -6
leaf_value=-0.052743059385265495 -0.022588451155307807 0.0079372227353048247 0.05588177676453792 0.010377828324875738 -0.0016524062185696465
leaf_count=22 38 24 32 36 26
internal_value=0 0.0918564 0.151921 0.257823 0.0218399
internal_count=178 156 118 68 50
cat_boundaries=0 1 2 3 4 5
cat_threshold=16384 1 8192 4 8
shrinkage=0.1


Tree=98
num_leaves=8
num_cat=7
split_feature=10 11 11 0 8 5 0
split_gain=2.05387 1.24817 1.00952 0.0963097 0.0316282 7.92269e-05 1.90987e-05
threshold=0 1 2 3 4 5 6
decision_type=1 5 5 1 5 5 1
left_child=4 -2 -3 -4 5 6 -1
right_child=1 2 3 -5 -6 -7 -8
leaf_value=-0.051363513816159639 -0.052967215915785862 -0.0093893485914946454 0.061238015137237846 0.038338505101140286 -0.067609576186037842 -0.052657122609305419 -0.051943938276328816
leaf_count=20 29 22 21 22 23 20 21
internal_value=0 0.122529 0.239314 0.457302 -0.576739 -0.520378 -0.516828
internal_count=178 94 65 43 84 61 41
cat_boundaries=0 1 2 3 4 5 6 7
cat_threshold=2 8 4 8192 2 4 8192
shrinkage=0.1


Tree=99
num_leaves=5
num_cat=4
split_feature=6 5 0 0
split_gain=1.20545 0.872673 0.364547 0.673122
threshold=0 1 2 3
decision_type=5 5 1 1
left_child=-1 -2 -3 -4
right_child=1 2 3 -5
leaf_value=-0.058375621185883457 -0.058542267901154681 0.046580396409648922 0.022950854495178211 -0.020350023961478819
leaf_count=40 37 20 43 38
internal_value=0 0.0662589 0.132555 0.0728884
internal_count=178 138 101 81
cat_boundaries=0 1 2 3 4
cat_threshold=2 2 16384 8192
shrinkage=0.1


Tree=100
num_leaves=7
num_cat=6
split_feature=0 6 11 5 0 10
split_gain=0.608329 0.537385 0.311246 0.629184 0.606988 0.053482
threshold=0 1 2 3 4 5
decision_type=1 5 5 5 1 1
left_child=-1 -2 4 5 -3 -4
right_child=1 2 3 -5 -6 -7
leaf_value=-0.052597145408098657 -0.021784859040462352 0.0050179362382945835 0.029789892207895175 -0.018373698200648172 0.055541806158920286 0.014746127586230727
leaf_count=22 38 20 20 21 32 25
internal_value=0 0.0904575 0.148532 0.0621007 0.291114 0.224864
internal_count=178 156 118 66 52 45
cat_boundaries=0 1 2 3 4 5 6
cat_threshold=16384 1 4 4 8192 1
shrinkage=0.1


Tree=101
num_leaves=8
num_cat=7
split_feature=10 11 11 0 8 5 0
split_gain=1.90906 1.14733 0.932493 0.0985372 0.0299748 6.50622e-05 1.74451e-05
threshold=0 1 2 3 4 5 6
decision_type=1 5 5 1 5 5 1
left_child=4 -2 -3 -4 5 6 -1
right_child=1 2 3 -5 -6 -7 -8
leaf_value=-0.051255639154890988 -0.052801688235165914 -0.0093334629747626342 0.060573833778858679 0.036833018158591552 -0.067469257371425603 -0.052490554759779276 -0.051830381348867777
leaf_count=20 29 22 21 22 23 20 21
internal_value=0 0.116108 0.228542 0.443328 -0.576507 -0.519063 -0.515742
internal_count=178 94 65 43 84 61 41
cat_boundaries=0 1 2 3 4 5 6 7
cat_threshold=2 8 4 8192 2 4 8192
shrinkage=0.1


Tree=102
num_leaves=6
num_cat=5
split_feature=6 5 10 6 11
split_gain=1.12858 0.818503 0.354066 0.0308934 0.0951887
threshold=0 1 2 3 4
decision_type=5 5 1 5 5
left_child=-1 -2 3 4 -3
right_child=1 2 -4 -5 -6
leaf_value=-0.058127334588800463 -0.058409011291888073 0.018356672858837301 -0.0029539317073236965 0.017349910215742986 0.042108039634734501
leaf_count=40 37 22 38 21 20
internal_value=0 0.0655678 0.130162 0.25513 0.293155
internal_count=178 138 101 63 42
cat_boundaries=0 1 2 3 4 5
cat_threshold=2 2 2 4 4
shrinkage=0.1


Tree=103
num_leaves=6
num_cat=5
split_feature=6 0 0 11 5
split_gain=0.56593 0.359075 0.365898 0.513062 0.0879269
threshold=0 1 2 3 4
decision_type=5 1 1 5 5
left_child=-1 -2 3 -3 -4
right_child=1 2 4 -5 -6
leaf_value=0.025290038624757247 -0.052244501836972747 0.0088638804454683629 0.0043921422702233315 -0.038534596008707026 0.022939550332407126
leaf_count=40 21 24 31 38 24
internal_value=0 -0.0374016 -0.00197463 -0.147803 0.126869
internal_count=178 138 117 62 55
cat_boundaries=0 1 2 3 4 5
cat_threshold=2 16384 8192 8 4
shrinkage=0.1


Tree=104
num_leaves=7
num_cat=6
split_feature=10 6 11 8 5 0
split_gain=1.77722 1.0641 0.540186 0.0285396 6.35555e-05 1.4375e-05
threshold=0 1 2 3 4 5
decision_type=1 5 5 5 5 1
left_child=3 -2 -3 4 5 -1
right_child=1 2 -4 -5 -6 -7
leaf_value=-0.051167373330918454 0.045233904374790676 -0.052646999398347896 0.0037012655850672711 -0.067439655083955163 -0.052404663484151792 -0.051707970241642975
leaf_count=20 39 29 26 23 20 21
internal_value=0 0.110682 -0.0925981 -0.576515 -0.518069 -0.514665
internal_count=178 94 55 84 61 41
cat_boundaries=0 1 2 3 4 5 6
cat_threshold=2 1 8 2 4 8192
shrinkage=0.1


Tree=105
num_leaves=5
num_cat=4
split_feature=6 5 0 0
split_gain=1.03896 0.753246 0.309924 0.555264
threshold=0 1 2 3
decision_type=5 5 1 1
left_child=-1 -2 -3 -4
right_child=1 2 3 -5
leaf_value=-0.057783862463027039 -0.058630226372653318 0.045062358419228545 0.021176989370315081 -0.018889244357438183
leaf_count=40 37 20 43 38
internal_value=0 0.0586796 0.120017 0.0660991
internal_count=178 138 101 81
cat_boundaries=0 1 2 3 4
cat_threshold=2 2 16384 8192
shrinkage=0.1


Tree=106
num_leaves=7
num_cat=6
split_feature=0 6 11 5 0 10
split_gain=0.516786 0.444579 0.309184 0.583331 0.54816 0.0485661
threshold=0 1 2 3 4 5
decision_type=1 5 5 5 1 1
left_child=-1 -2 4 5 -3 -4
right_child=1 2 3 -5 -6 -7
leaf_value=-0.05229527753576331 -0.020348522440895793 0.0055393482096432181 0.028019351753578888 -0.018853639358931577 0.055110029475794624 0.013478901480894824
leaf_count=22 38 20 20 21 32 25
internal_value=0 0.0839831 0.13767 0.0512526 0.285066 0.210232
internal_count=178 156 118 66 52 45
cat_boundaries=0 1 2 3 4 5 6
cat_threshold=16384 1 4 4 8192 1
shrinkage=0.1


Tree=107
num_leaves=8
num_cat=7
split_feature=10 11 11 0 8 5 0
split_gain=1.67723 0.983775 0.86666 0.103604 0.0250329 6.77045e-05 1.16586e-05
threshold=0 1 2 3 4 5 6
decision_type=1 5 5 1 5 5 1
left_child=4 -2 -3 -4 5 6 -1
right_child=1 2 3 -5 -6 -7 -8
leaf_value=-0.051085378772558199 -0.052488554380754837 -0.010036822537033793 0.060271473612948712 0.035038565230059118 -0.066769333760772986 -0.052363193359053796 -0.051589139597928546
leaf_count=20 29 22 21 22 23 20 21
internal_value=0 0.110049 0.213373 0.427559 -0.574097 -0.517295 -0.513649
internal_count=178 94 65 43 84 61 41
cat_boundaries=0 1 2 3 4 5 6 7
cat_threshold=2 8 4 8192 2 4 8192
shrinkage=0.1


Tree=108
num_leaves=6
num_cat=5
split_feature=6 6 8 0 0
split_gain=0.973954 0.708096 0.277395 0.140756 0.00059884
threshold=0 1 2 3 4
decision_type=5 5 5 1 1
left_child=-1 4 3 -3 -2
right_child=1 2 -4 -5 -6
leaf_value=-0.057540531963461775 -0.056259188654502718 0.031299243990977131 -0.0058557542172233846 0.0084957886714953339 -0.052565361307448155
leaf_count=40 20 30 31 37 20
internal_value=0 0.0582559 0.122261 0.214402 -0.542203
internal_count=178 138 98 67 40
cat_boundaries=0 1 2 3 4 5
cat_threshold=2 1 2 8192 8192
shrinkage=0.1


Tree=109
num_leaves=7
num_cat=6
split_feature=0 6 11 0 5 10
split_gain=0.467641 0.404432 0.273629 0.528398 0.514389 0.0504939
threshold=0 1 2 3 4 5
decision_type=1 5 5 1 5 1
left_child=-1 -2 3 -3 5 -4
right_child=1 2 4 -5 -6 -7
leaf_value=-0.052103162232517944 -0.019686674871203444 0.005101979090366718 0.027303868322983166 0.054765937028113047 -0.0177146454337401 0.01233707682106807
leaf_count=22 38 20 20 32 21 25
internal_value=0 0.0804065 0.13233 0.273861 0.0506183 0.201176
internal_count=178 156 118 52 66 45
cat_boundaries=0 1 2 3 4 5 6
cat_threshold=16384 1 4 8192 4 1
shrinkage=0.1


Tree=110
num_leaves=7
num_cat=6
split_feature=10 6 8 8 5 0
split_gain=1.56312 0.941786 0.511289 0.0236358 6.58052e-05 9.65376e-06
threshold=0 1 2 3 4 5
decision_type=1 5 5 5 5 1
left_child=3 -2 -3 4 5 -1
right_child=1 2 -4 -5 -6 -7
leaf_value=-0.051010839529772839 0.043840067407387794 -0.031165191925482835 0.01613625173584194 -0.066681187091059232 -0.052292642495343628 -0.051485593062830015
leaf_count=20 39 32 23 23 20 21
internal_value=0 0.104812 -0.0895977 -0.573991 -0.516464 -0.512738
internal_count=178 94 55 84 61 41
cat_boundaries=0 1 2 3 4 5 6
cat_threshold=2 1 2 2 4 8192
shrinkage=0.1


Tree=111
num_leaves=6
num_cat=5
split_feature=6 5 8 10 11
split_gain=0.927805 0.692728 0.307664 0.352042 0.0202924
threshold=0 1 2 3 4
decision_type=5 5 5 1 5
left_child=-1 -2 3 4 -3
right_child=1 2 -4 -5 -6
leaf_value=-0.057284258488271546 -0.05913830146223218 0.030425251061444114 -0.0068586517676798358 -0.0023409682169814967 0.041315392320024277
leaf_count=40 37 25 33 22 21
internal_value=0 0.0595172 0.118612 0.218156 0.35336
internal_count=178 138 101 68 46
cat_boundaries=0 1 2 3 4 5
cat_threshold=2 2 2 2 4
shrinkage=0.1


Tree=112
num_leaves=7
num_cat=6
split_feature=0 6 11 0 5 10
split_gain=0.440235 0.335654 0.2575 0.507755 0.476348 0.049232
threshold=0 1 2 3 4 5
decision_type=1 5 5 1 5 1
left_child=-1 -2 3 -3 5 -4
right_child=1 2 4 -5 -6 -7
leaf_value=-0.051995619682058271 -0.017952155960365573 0.0048962251406024148 0.0262978082821624 0.054502255631238221 -0.017330766647140759 0.011448256484910782
leaf_count=22 38 20 20 32 21 25
internal_value=0 0.0779993 0.12531 0.265413 0.0463406 0.192043
internal_count=178 156 118 52 66 45
cat_boundaries=0 1 2 3 4 5 6
cat_threshold=16384 1 4 8192 4 1
shrinkage=0.1


Tree=113
num_leaves=8
num_cat=7
split_feature=10 11 11 0 8 5 0
split_gain=1.44854 0.863601 0.78171 0.117399 0.0219996 5.59863e-05 8.59945e-06
threshold=0 1 2 3 4 5 6
decision_type=1 5 5 1 5 5 1
left_child=4 -2 -3 -4 5 6 -1
right_child=1 2 3 -5 -6 -7 -8
leaf_value=-0.050932807741042467 -0.052332981803353475 -0.010909147328326823 0.060028947502795416 0.032210375549780471 -0.066429837904851505 -0.052165283759626271 -0.051397126354369216
leaf_count=20 29 22 21 22 23 20 21
internal_value=0 0.0968358 0.195296 0.405706 -0.57351 -0.515472 -0.511916
internal_count=178 94 65 43 84 61 41
cat_boundaries=0 1 2 3 4 5 6 7
cat_threshold=2 8 4 8192 2 4 8192
shrinkage=0.1


Tree=114
num_leaves=6
num_cat=5
split_feature=6 5 8 10 0
split_gain=0.869427 0.649356 0.28838 0.322658 0.0190102
threshold=0 1 2 3 4
decision_type=5 5 5 1 1
left_child=-1 -2 3 4 -3
right_child=1 2 -4 -5 -6
leaf_value=-0.057051368330325217 -0.058936616854510654 0.02989422051293162 -0.0067613714030752671 -0.0019197114272173554 0.04065336196163627
leaf_count=40 37 23 33 22 23
internal_value=0 0.0581944 0.114971 0.212238 0.343834
internal_count=178 138 101 68 46
cat_boundaries=0 1 2 3 4 5
cat_threshold=2 2 2 2 8192
shrinkage=0.1


Tree=115
num_leaves=7
num_cat=6
split_feature=0 6 0 5 11 6
split_gain=0.41252 0.332827 0.348267 0.383646 0.592527 0.0489037
threshold=0 1 2 3 4 5
decision_type=1 5 1 5 5 5
left_child=-1 -2 5 -4 -5 -3
right_child=1 2 3 4 -6 -7
leaf_value=-0.051892310947533306 0.023435222355754334 -0.0097012793504282976 0.056024886622895155 0.02243904433211575 -0.0271804346720677 -0.027093890960283029
leaf_count=22 39 22 21 30 24 20
internal_value=0 0.0759155 -0.00174918 0.101445 0.029808 -0.187683
internal_count=178 156 117 75 54 42
cat_boundaries=0 1 2 3 4 5 6
cat_threshold=16384 2 4096 2 8 4
shrinkage=0.1


Tree=116
num_leaves=7
num_cat=6
split_feature=10 6 8 8 5 0
split_gain=1.34651 0.828681 0.459054 0.0203201 5.48444e-05 7.53808e-06
threshold=0 1 2 3 4 5
decision_type=1 5 5 5 5 1
left_child=3 -2 -3 4 5 -1
right_child=1 2 -4 -5 -6 -7
leaf_value=-0.050858475525475212 0.041764946086800599 -0.031087645034570184 0.014691169908802832 -0.066158432849718396 -0.052109556764607205 -0.051310121497052719
leaf_count=20 39 32 23 23 20 21
internal_value=0 0.0902929 -0.094033 -0.573204 -0.514776 -0.511113
internal_count=178 94 55 84 61 41
cat_boundaries=0 1 2 3 4 5 6
cat_threshold=2 1 2 2 4 8192
shrinkage=0.1


Tree=117
num_leaves=6
num_cat=5
split_feature=6 5 8 10 11
split_gain=0.80995 0.587861 0.255895 0.272344 0.0163115
threshold=0 1 2 3 4
decision_type=5 5 5 1 5
left_child=-1 -2 3 4 -3
right_child=1 2 -4 -5 -6
leaf_value=-0.056711870471311869 -0.058360815782085552 0.027563134320523555 -0.006490406043647816 -0.0013078566870232667 0.037490705865916234
leaf_count=40 37 25 33 22 21
internal_value=0 0.0542248 0.107035 0.199375 0.321622
internal_count=178 138 101 68 46
cat_boundaries=0 1 2 3 4 5
cat_threshold=2 2 2 2 4
shrinkage=0.1


Tree=118
num_leaves=7
num_cat=6
split_feature=0 0 5 8 6 6
split_gain=0.383857 0.276743 0.432614 0.539745 0.234482 0.0452528
threshold=0 1 2 3 4 5
decision_type=1 1 5 5 5 5
left_child=-1 4 -3 -4 -2 -6
right_child=1 2 3 -5 5 -7
leaf_value=-0.051797389584365784 0.011689006598998955 0.045588172305418638 -0.012584911738321526 0.030671348013012384 -0.0086499535412327775 -0.02543195368811349
leaf_count=22 25 30 38 21 22 20
internal_value=0 0.0720346 0.159333 0.0648072 -0.0460751 -0.172211
internal_count=178 156 89 59 67 42
cat_boundaries=0 1 2 3 4 5 6
cat_threshold=16384 4096 2 2 2 4
shrinkage=0.1


Tree=119
num_leaves=8
num_cat=7
split_feature=10 11 11 0 8 5 0
split_gain=1.27657 0.783895 0.726577 0.125438 0.019111 4.60837e-05 6.24509e-06
threshold=0 1 2 3 4 5 6
decision_type=1 5 5 1 5 5 1
left_child=4 -2 -3 -4 5 6 -1
right_child=1 2 3 -5 -6 -7 -8
leaf_value=-0.050794613417496637 -0.052184013114856709 -0.011425783669237357 0.059840747545357981 0.030370514943323036 -0.065988377915353585 -0.051979809126734756 -0.051220311590419169
leaf_count=20 29 22 21 22 23 20 21
internal_value=0 0.0885898 0.183471 0.391807 -0.57287 -0.513821 -0.510341
internal_count=178 94 65 43 84 61 41
cat_boundaries=0 1 2 3 4 5 6 7
cat_threshold=2 8 4 8192 2 4 8192
shrinkage=0.1


Tree=120
num_leaves=6
num_cat=5
split_feature=6 6 8 0 0
split_gain=0.742027 0.541052 0.180201 0.159424 0.000553181
threshold=0 1 2 3 4
decision_type=5 5 5 1 1
left_child=-1 4 3 -3 -2
right_child=1 2 -4 -5 -6
leaf_value=-0.056349555537754684 -0.056218849221078684 0.029222342012732151 -0.0045163761309581774 0.004277465338345476 -0.052262621603134211
leaf_count=40 20 30 31 37 20
internal_value=0 0.0485486 0.101882 0.179448 -0.540225
internal_count=178 138 98 67 40
cat_boundaries=0 1 2 3 4 5
cat_threshold=2 1 2 8192 8192
shrinkage=0.1


Tree=121
num_leaves=7
num_cat=6
split_feature=0 6 11 0 5 10
split_gain=0.359662 0.254077 0.244519 0.505581 0.445736 0.0392687
threshold=0 1 2 3 4 5
decision_type=1 5 5 1 5 1
left_child=-1 -2 3 -3 5 -4
right_child=1 2 4 -5 -6 -7
leaf_value=-0.051706717021334794 -0.016084353193826978 0.0032448594917287854 0.023975127186856366 0.054387732679150536 -0.018051995706333406 0.010620963478293661
leaf_count=22 38 20 20 32 21 25
internal_value=0 0.0695055 0.111009 0.253029 0.0345528 0.17613
internal_count=178 156 118 52 66 45
cat_boundaries=0 1 2 3 4 5 6
cat_threshold=16384 1 4 8192 4 1
shrinkage=0.1


Tree=122
num_leaves=7
num_cat=6
split_feature=10 11 8 8 5 0
split_gain=1.20942 0.735324 0.688519 0.0178981 3.82455e-05 5.49807e-06
threshold=0 1 2 3 4 5
decision_type=1 5 5 5 5 1
left_child=3 -2 -3 4 5 -1
right_child=1 2 -4 -5 -6 -7
leaf_value=-0.050734595561338448 -0.052052573919565553 -0.0062650887090143258 0.04262502793516991 -0.065797479787916266 -0.051859021344238698 -0.051147959302826944
leaf_count=20 29 39 26 23 20 21
internal_value=0 0.0870757 0.178371 -0.572439 -0.51297 -0.509691
internal_count=178 94 65 84 61 41
cat_boundaries=0 1 2 3 4 5 6
cat_threshold=2 8 2 2 4 8192
shrinkage=0.1


Tree=123
num_leaves=5
num_cat=4
split_feature=6 5 0 0
split_gain=0.698707 0.527474 0.222777 0.395602
threshold=0 1 2 3
decision_type=5 5 1 1
left_child=-1 -2 -3 -4
right_child=1 2 3 -5
leaf_value=-0.056121184016987014 -0.058341642054858103 0.043005629547961895 0.01842199217558332 -0.016549840003722099
leaf_count=40 37 20 43 38
internal_value=0 0.0478555 0.0973671 0.0545767
internal_count=178 138 101 81
cat_boundaries=0 1 2 3 4
cat_threshold=2 2 16384 8192
shrinkage=0.1


Tree=124
num_leaves=7
num_cat=6
split_feature=0 0 5 8 6 6
split_gain=0.340425 0.250697 0.399713 0.422668 0.223543 0.0368126
threshold=0 1 2 3 4 5
decision_type=1 1 5 5 5 5
left_child=-1 4 -3 -4 -2 -6
right_child=1 2 3 -5 5 -7
leaf_value=-0.051615387523238611 0.011765494637820789 0.044117300714728136 -0.011247343303162786 0.027363952945897552 -0.0092893475994442962 -0.024607036868260251
leaf_count=22 25 30 38 21 22 20
internal_value=0 0.0683741 0.152066 0.0604834 -0.046355 -0.170122
internal_count=178 156 89 59 67 42
cat_boundaries=0 1 2 3 4 5 6
cat_threshold=16384 4096 2 2 2 4
shrinkage=0.1


Tree=125
num_leaves=7
num_cat=6
split_feature=10 6 11 8 5 0
split_gain=1.12337 0.685769 0.377331 0.0164572 3.2974e-05 4.86258e-06
threshold=0 1 2 3 4 5
decision_type=1 5 5 5 5 1
left_child=3 -2 -3 4 5 -1
right_child=1 2 -4 -5 -6 -7
leaf_value=-0.05067932361693115 0.039196861247742888 -0.051969233550650841 0.0014851611234721744 -0.065489779951068361 -0.051764456876920252 -0.051081905101674978
leaf_count=20 39 29 26 23 20 21
internal_value=0 0.0798881 -0.0900206 -0.571767 -0.512239 -0.509091
internal_count=178 94 55 84 61 41
cat_boundaries=0 1 2 3 4 5 6
cat_threshold=2 1 8 2 4 8192
shrinkage=0.1


Tree=126
num_leaves=5
num_cat=4
split_feature=6 5 0 0
split_gain=0.647892 0.480526 0.199287 0.364576
threshold=0 1 2 3
decision_type=5 5 1 1
left_child=-1 -2 -3 -4
right_child=1 2 3 -5
leaf_value=-0.05577627567515725 -0.057823917852320522 0.04191062461511242 0.017713597693051492 -0.016075548675218734
leaf_count=40 37 20 43 38
internal_value=0 0.044104 0.0909871 0.0513301
internal_count=178 138 101 81
cat_boundaries=0 1 2 3 4
cat_threshold=2 2 16384 8192
shrinkage=0.1


Tree=127
num_leaves=7
num_cat=6
split_feature=0 0 5 8 6 6
split_gain=0.308521 0.239709 0.358255 0.372246 0.19873 0.0269592
threshold=0 1 2 3 4 5
decision_type=1 1 5 5 5 5
left_child=-1 4 -3 -4 -2 -6
right_child=1 2 3 -5 5 -7
leaf_value=-0.051489174553793815 0.010654608774782042 0.042169541377133142 -0.010500178946365069 0.025953394075480474 -0.010079208011697512 -0.023320342363028393
leaf_count=22 25 30 38 21 22 20
internal_value=0 0.0644278 0.14667 0.0593006 -0.0488215 -0.166958
internal_count=178 156 89 59 67 42
cat_boundaries=0 1 2 3 4 5 6
cat_threshold=16384 4096 2 2 2 4
shrinkage=0.1


Tree=128
num_leaves=8
num_cat=7
split_feature=10 11 11 0 8 5 0
split_gain=1.07076 0.628236 0.671495 0.1419 0.0155544 2.71956e-05 4.1199e-06
threshold=0 1 2 3 4 5 6
decision_type=1 5 5 1 5 5 1
left_child=4 -2 -3 -4 5 6 -1
right_child=1 2 3 -5 -6 -7 -8
leaf_value=-0.050635306819231334 -0.051821831223347714 -0.012787933794525426 0.059505635133189849 0.027333370027839289 -0.065398312893818866 -0.051655774498049381 -0.05101761720118661
leaf_count=20 29 22 21 22 23 20 21
internal_value=0 0.0805454 0.163267 0.370226 -0.571436 -0.511488 -0.508542
internal_count=178 94 65 43 84 61 41
cat_boundaries=0 1 2 3 4 5 6 7
cat_threshold=2 8 4 8192 2 4 8192
shrinkage=0.1


Tree=129
num_leaves=6
num_cat=5
split_feature=6 6 8 0 0
split_gain=0.595523 0.46232 0.164433 0.132033 0.000549817
threshold=0 1 2 3 4
decision_type=5 5 5 1 1
left_child=-1 4 3 -3 -2
right_child=1 2 -4 -5 -6
leaf_value=-0.055462682713151884 -0.056462678180737726 0.027341740791906245 -0.005498390805846326 0.0039016170208241961 -0.052264217639961155
leaf_count=40 20 30 31 37 20
internal_value=0 0.0396052 0.0889985 0.165911 -0.541367
internal_count=178 138 98 67 40
cat_boundaries=0 1 2 3 4 5
cat_threshold=2 1 2 8192 8192
shrinkage=0.1


Tree=130
num_leaves=7
num_cat=6
split_feature=0 0 5 8 6 6
split_gain=0.27968 0.232953 0.319907 0.330195 0.196014 0.0228779
threshold=0 1 2 3 4 5
decision_type=1 1 5 5 5 5
left_child=-1 4 -3 -4 -2 -6
right_child=1 2 3 -5 5 -7
leaf_value=-0.051367285774343796 0.010440242452628201 0.040434889465498808 -0.0097198932047511503 0.02484945635905645 -0.010817669119583536 -0.023090449567582993
leaf_count=22 25 30 38 21 22 20
internal_value=0 0.0609349 0.142593 0.0594172 -0.0515582 -0.169392
internal_count=178 156 89 59 67 42
cat_boundaries=0 1 2 3 4 5 6
cat_threshold=16384 4096 2 2 2 4
shrinkage=0.1


Tree=131
num_leaves=7
num_cat=6
split_feature=10 8 6 8 5 0
split_gain=1.02069 0.61402 0.275015 0.0146435 2.23459e-05 3.51699e-06
threshold=0 1 2 3 4 5
decision_type=1 5 5 5 5 1
left_child=3 2 -2 4 5 -1
right_child=1 -3 -4 -5 -6 -7
leaf_value=-0.050594492946524183 0.015122274645068566 0.031306338288604053 -0.028187365218655502 -0.065278566997980805 -0.051553269258311579 -0.050958787965575542
leaf_count=20 24 38 32 23 20 21
internal_value=0 0.0812139 -0.131873 -0.571016 -0.510787 -0.508037
internal_count=178 94 56 84 61 41
cat_boundaries=0 1 2 3 4 5 6
cat_threshold=2 2 1 2 4 8192
shrinkage=0.1


Tree=132
num_leaves=7
num_cat=6
split_feature=6 6 6 10 11 0
split_gain=0.554233 0.427035 0.142581 0.317383 0.133352 0.000455592
threshold=0 1 2 3 4 5
decision_type=5 5 5 1 5 1
left_child=-1 5 3 4 -3 -2
right_child=1 2 -4 -5 -6 -7
leaf_value=-0.055148192921021293 -0.056097957892372111 0.00076442445754723836 0.021566118386418774 -0.02304100995625415 0.030587632314949226 -0.052162982970764049
leaf_count=40 20 24 33 20 21 20
internal_value=0 0.0366969 0.0832786 0.0101551 0.149205 -0.539129
internal_count=178 138 98 65 45 40
cat_boundaries=0 1 2 3 4 5 6
cat_threshold=2 1 4 2 4 8192
shrinkage=0.1


Tree=133
num_leaves=7
num_cat=6
split_feature=0 0 5 11 6 6
split_gain=0.263316 0.214041 0.276475 0.324852 0.175321 0.0204872
threshold=0 1 2 3 4 5
decision_type=1 1 5 5 5 5
left_child=-1 4 -3 -4 -2 -6
right_child=1 2 3 -5 5 -7
leaf_value=-0.051294709819129258 0.0098609110391237494 0.03799869314063517 0.021729402514965315 -0.01267053123403299 -0.010443281308112723 -0.02210451108848592
leaf_count=22 25 30 30 29 22 20
internal_value=0 0.0583365 0.136805 0.0588826 -0.0501511 -0.161829
internal_count=178 156 89 59 67 42
cat_boundaries=0 1 2 3 4 5 6
cat_threshold=16384 4096 2 8 2 4
shrinkage=0.1


Tree=134
num_leaves=8
num_cat=7
split_feature=10 11 11 0 8 5 0
split_gain=0.966681 0.573853 0.615507 0.151971 0.0136382 1.66223e-05 3.14061e-06
threshold=0 1 2 3 4 5 6
decision_type=1 5 5 1 5 5 1
left_child=4 -2 -3 -4 5 6 -1
right_child=1 2 3 -5 -6 -7 -8
leaf_value=-0.050551288238682213 -0.051656093779644745 -0.012390469073908528 0.059364510798559034 0.02564973555687668 -0.065048135792257003 -0.051424773110662896 -0.050906611418394379
leaf_count=20 29 22 21 22 23 20 21
internal_value=0 0.0787962 0.157268 0.358977 -0.570328 -0.510014 -0.507575
internal_count=178 94 65 43 84 61 41
cat_boundaries=0 1 2 3 4 5 6 7
cat_threshold=2 8 4 8192 2 4 8192
shrinkage=0.1


Tree=135
num_leaves=5
num_cat=4
split_feature=6 5 0 0
split_gain=0.51938 0.403897 0.169743 0.336717
threshold=0 1 2 3
decision_type=5 5 1 1
left_child=-1 -2 -3 -4
right_child=1 2 3 -5
leaf_value=-0.055050926573324679 -0.057404063727769329 0.040840089254667471 0.016584990951205282 -0.016114566090193023
leaf_count=40 37 20 43 38
internal_value=0 0.033527 0.075715 0.041087
internal_count=178 138 101 81
cat_boundaries=0 1 2 3 4
cat_threshold=2 2 16384 8192
shrinkage=0.1


Tree=136
num_leaves=7
num_cat=6
split_feature=0 0 5 11 6 6
split_gain=0.245555 0.197849 0.255399 0.296195 0.162987 0.0218176
threshold=0 1 2 3 4 5
decision_type=1 1 5 5 5 5
left_child=-1 4 -3 -4 -2 -6
right_child=1 2 3 -5 5 -7
leaf_value=-0.05122254163837562 0.0096950143894478976 0.036756725878835911 0.020757151073883609 -0.012229879770622107 -0.0096776760038810652 -0.021713372563807443
leaf_count=22 25 30 30 29 22 20
internal_value=0 0.056386 0.132165 0.0571805 -0.048281 -0.155412
internal_count=178 156 89 59 67 42
cat_boundaries=0 1 2 3 4 5 6
cat_threshold=16384 4096 2 8 2 4
shrinkage=0.1


Tree=137
num_leaves=7
num_cat=6
split_feature=10 8 0 8 5 0
split_gain=0.916791 0.550279 0.228876 0.0127295 1.27685e-05 2.68586e-06
threshold=0 1 2 3 4 5
decision_type=1 5 1 5 5 1
left_child=3 2 -2 4 5 -1
right_child=1 -3 -4 -5 -6 -7
leaf_value=-0.050518135029145511 0.0082194185307493655 0.029969279303613469 -0.030205871170448029 -0.0648303699447145 -0.051318381500513793 -0.050856530303539461
leaf_count=20 26 38 30 23 20 21
internal_value=0 0.0767591 -0.128539 -0.56975 -0.509348 -0.507153
internal_count=178 94 56 84 61 41
cat_boundaries=0 1 2 3 4 5 6
cat_threshold=2 2 8192 2 4 8192
shrinkage=0.1


Tree=138
num_leaves=6
num_cat=5
split_feature=6 6 8 0 0
split_gain=0.491258 0.39085 0.136563 0.137777 0.000434721
threshold=0 1 2 3 4
decision_type=5 5 5 1 1
left_child=-1 4 3 -3 -2
right_child=1 2 -4 -5 -6
leaf_value=-0.05494272738974313 -0.056164737953904365 0.026213091145256578 -0.0056290810345222507 0.0018993980672151888 -0.05217989930523842
leaf_count=40 20 30 31 37 20
internal_value=0 0.0322257 0.076306 0.147819 -0.539365
internal_count=178 138 98 67 40
cat_boundaries=0 1 2 3 4 5
cat_threshold=2 1 2 8192 8192
shrinkage=0.1


Tree=139
num_leaves=6
num_cat=5
split_feature=0 0 10 11 5
split_gain=0.222323 0.193357 0.313107 0.205402 0.135532
threshold=0 1 2 3 4
decision_type=1 1 1 5 5
left_child=-1 2 -2 -3 -5
right_child=1 3 -4 4 -6
leaf_value=-0.051119517987577669 0.013451039399223562 0.029885505186548662 -0.020295397421744521 -0.009305406399704369 0.015529462868737388
leaf_count=22 32 37 38 22 27
internal_value=0 0.0522866 -0.0460239 0.131941 0.0417228
internal_count=178 156 70 86 49
cat_boundaries=0 1 2 3 4 5
cat_threshold=16384 8192 2 4 2
shrinkage=0.1


Tree=140
num_leaves=7
num_cat=6
split_feature=10 6 6 8 5 0
split_gain=0.874894 0.52567 0.331727 0.0118745 1.05336e-05 2.30566e-06
threshold=0 1 2 3 4 5
decision_type=1 5 5 5 5 1
left_child=3 -2 -3 4 5 -1
right_child=1 2 -4 -5 -6 -7
leaf_value=-0.050485160777544474 0.036386958750680119 0.0020325432184306398 -0.051473006427385448 -0.064630427379545038 -0.051238871881936335 -0.050808457721256674
leaf_count=20 39 23 32 23 20 21
internal_value=0 0.0761347 -0.0769471 -0.569287 -0.508795 -0.506742
internal_count=178 94 55 84 61 41
cat_boundaries=0 1 2 3 4 5 6
cat_threshold=2 1 2 2 4 8192
shrinkage=0.1


Tree=141
num_leaves=6
num_cat=5
split_feature=6 5 8 10 0
split_gain=0.46381 0.366423 0.156272 0.196365 0.0183566
threshold=0 1 2 3 4
decision_type=5 5 5 1 1
left_child=-1 -2 3 -3 -5
right_child=1 2 -4 4 -6
leaf_value=-0.054696365161531993 -0.057232699540139813 -0.003964442907843385 -0.0068861207572091104 0.020965257343395355 0.032306791136780547
leaf_count=40 37 22 33 23 23
internal_value=0 0.0316068 0.0715353 0.149629 0.262907
internal_count=178 138 101 68 46
cat_boundaries=0 1 2 3 4 5
cat_threshold=2 2 2 1 8192
shrinkage=0.1


Tree=142
num_leaves=7
num_cat=6
split_feature=0 0 5 11 6 6
split_gain=0.211079 0.210769 0.238459 0.300986 0.160625 0.014449
threshold=0 1 2 3 4 5
decision_type=1 1 5 5 5 5
left_child=-1 4 -3 -4 -2 -6
right_child=1 2 3 -5 5 -7
leaf_value=-0.051068666713072454 0.008767775455282777 0.035955177326539016 0.020873820834519871 -0.012824478704818657 -0.011806312948691821 -0.021747505142394506
leaf_count=22 25 30 30 29 22 20
internal_value=0 0.0512239 0.130215 0.0566623 -0.058536 -0.166518
internal_count=178 156 89 59 67 42
cat_boundaries=0 1 2 3 4 5 6
cat_threshold=16384 4096 2 8 2 4
shrinkage=0.1


Tree=143
num_leaves=7
num_cat=6
split_feature=10 8 0 8 5 0
split_gain=0.816857 0.506441 0.207053 0.0106801 8.83866e-06 1.96128e-06
threshold=0 1 2 3 4 5
decision_type=1 5 1 5 5 1
left_child=3 2 -2 4 5 -1
right_child=1 -3 -4 -5 -6 -7
leaf_value=-0.050449708352294446 0.0075220924900469459 0.028925584776968983 -0.029459161476150603 -0.064207714163022886 -0.051165677751704088 -0.050758402725430508
leaf_count=20 26 38 30 23 20 21
internal_value=0 0.071069 -0.127637 -0.568001 -0.508258 -0.506311
internal_count=178 94 56 84 61 41
cat_boundaries=0 1 2 3 4 5 6
cat_threshold=2 2 8192 2 4 8192
shrinkage=0.1


Tree=144
num_leaves=7
num_cat=6
split_feature=6 6 6 10 11 0
split_gain=0.438883 0.347613 0.129261 0.250561 0.120245 0.000329446
threshold=0 1 2 3 4 5
decision_type=5 5 5 1 5 1
left_child=-1 5 3 4 -3 -2
right_child=1 2 -4 -5 -6 -7
leaf_value=-0.054594750031489059 -0.055739610852192811 -0.0015216737520696735 0.01999401405985143 -0.021629780833589726 0.027296863975570934 -0.05209887795075685
leaf_count=40 20 24 33 20 21 20
internal_value=0 0.0299051 0.0703241 -9.05376e-05 0.12619 -0.536921
internal_count=178 138 98 65 45 40
cat_boundaries=0 1 2 3 4 5 6
cat_threshold=2 1 4 2 4 8192
shrinkage=0.1


Tree=145
num_leaves=7
num_cat=6
split_feature=0 0 5 11 6 6
split_gain=0.197644 0.188148 0.210303 0.269081 0.141022 0.0162507
threshold=0 1 2 3 4 5
decision_type=1 1 5 5 5 5
left_child=-1 4 -3 -4 -2 -6
right_child=1 2 3 -5 5 -7
leaf_value=-0.051013751683231592 0.0082747597023997612 0.033877086938812966 0.019637318491595404 -0.012294757420218801 -0.010553799659528141 -0.02108483305896431
leaf_count=22 25 30 30 29 22 20
internal_value=0 0.0483379 0.123039 0.0539107 -0.0555666 -0.156133
internal_count=178 156 89 59 67 42
cat_boundaries=0 1 2 3 4 5 6
cat_threshold=16384 4096 2 8 2 4
shrinkage=0.1


Tree=146
num_leaves=8
num_cat=7
split_feature=10 11 11 0 8 5 0
split_gain=0.777592 0.489857 0.549181 0.156844 0.00984123 7.26661e-06 1.70524e-06
threshold=0 1 2 3 4 5 6
decision_type=1 5 5 1 5 5 1
left_child=4 -2 -3 -4 5 6 -1
right_child=1 2 3 -5 -6 -7 -8
leaf_value=-0.050419379877122007 -0.051465902906872932 -0.01285623375919886 0.058604059408597135 0.023233046299727639 -0.063917853550562606 -0.051094718452084735 -0.05071649441710635
leaf_count=20 29 22 21 22 23 20 21
internal_value=0 0.0691345 0.141401 0.338288 -0.567368 -0.507769 -0.505949
internal_count=178 94 65 43 84 61 41
cat_boundaries=0 1 2 3 4 5 6 7
cat_threshold=2 8 4 8192 2 4 8192
shrinkage=0.1


Tree=147
num_leaves=5
num_cat=4
split_feature=6 5 0 10
split_gain=0.41219 0.325033 0.161971 0.493337
threshold=0 1 2 3
decision_type=5 5 1 1
left_child=-1 -2 -3 -4
right_child=1 2 3 -5
leaf_value=-0.054502024911107311 -0.05662207868507451 0.015768120345980387 0.019720267736189227 -0.03700089900948083
leaf_count=40 37 43 34 24
internal_value=0 0.0271233 0.0635219 -0.0577877
internal_count=178 138 101 58
cat_boundaries=0 1 2 3 4
cat_threshold=2 2 8192 2
shrinkage=0.1


Tree=148
num_leaves=6
num_cat=5
split_feature=0 0 10 11 5
split_gain=0.184826 0.189667 0.303799 0.203274 0.129413
threshold=0 1 2 3 4
decision_type=1 1 1 5 5
left_child=-1 2 -2 -3 -5
right_child=1 3 -4 4 -6
leaf_value=-0.050958904062906235 0.01303097770891695 0.029549743350988551 -0.020591161492014801 -0.0098524627636954187 0.0147903500059316
leaf_count=22 32 37 38 22 27
internal_value=0 0.046829 -0.0513935 0.127065 0.0359543
internal_count=178 156 70 86 49
cat_boundaries=0 1 2 3 4 5
cat_threshold=16384 8192 2 4 2
shrinkage=0.1


Tree=149
num_leaves=7
num_cat=6
split_feature=10 6 6 8 5 0
split_gain=0.738822 0.474744 0.295405 0.00910566 5.6091e-06 1.46005e-06
threshold=0 1 2 3 4 5
decision_type=1 5 5 5 5 1
left_child=3 -2 -3 4 5 -1
right_child=1 2 -4 -5 -6 -7
leaf_value=-0.050395349709076977 0.034967588206632781 0.001087249878078339 -0.051389154225985528 -0.063662624639404128 -0.051015477774312035 -0.05067822583363122
leaf_count=20 39 23 32 23 20 21
internal_value=0 0.0674494 -0.0803845 -0.566625 -0.507271 -0.505631
internal_count=178 94 55 84 61 41
cat_boundaries=0 1 2 3 4 5 6
cat_threshold=2 1 2 2 4 8192
shrinkage=0.1


Tree=150
num_leaves=6
num_cat=5
split_feature=6 6 8 0 0
split_gain=0.389403 0.307136 0.126794 0.135074 0.000312445
threshold=0 1 2 3 4
decision_type=5 5 5 1 1
left_child=-1 4 3 -3 -2
right_child=1 2 -4 -5 -6
leaf_value=-0.054268709601183678 -0.055624103182220802 0.025178079259984106 -0.0066727353084661684 0.00063453026363405394 -0.051897500119342577
leaf_count=40 20 30 31 37 20
internal_value=0 0.0267677 0.0638484 0.134115 -0.535525
internal_count=178 138 98 67 40
cat_boundaries=0 1 2 3 4 5
cat_threshold=2 1 2 8192 8192
shrinkage=0.1


Tree=151
num_leaves=7
num_cat=6
split_feature=0 0 5 11 6 6
split_gain=0.175573 0.188148 0.206426 0.264455 0.136214 0.0153269
threshold=0 1 2 3 4 5
decision_type=1 1 5 5 5 5
left_child=-1 4 -3 -4 -2 -6
right_child=1 2 3 -5 5 -7
leaf_value=-0.050937484481409862 0.0079018903494569321 0.033861274659751618 0.019422408734558944 -0.012654063926385892 -0.010939920197578432 -0.021248140194599686
leaf_count=22 25 30 30 29 22 20
internal_value=0 0.0455495 0.121361 0.05218 -0.0593355 -0.158508
internal_count=178 156 89 59 67 42
cat_boundaries=0 1 2 3 4 5 6
cat_threshold=16384 4096 2 8 2 4
shrinkage=0.1


Tree=152
num_leaves=7
num_cat=6
split_feature=10 8 0 8 5 0
split_gain=0.692146 0.463798 0.189629 0.00820985 5.12098e-06 1.20416e-06
threshold=0 1 2 3 4 5
decision_type=1 5 1 5 5 1
left_child=3 2 -2 4 5 -1
right_child=1 -3 -4 -5 -6 -7
leaf_value=-0.050370102004170018 0.0068311961293021708 0.027777917896640004 -0.029303314035220535 -0.063301108143460572 -0.050973494429573954 -0.050635564180371441
leaf_count=20 26 38 30 23 20 21
internal_value=0 0.0634325 -0.130289 -0.565426 -0.506896 -0.505274
internal_count=178 94 56 84 61 41
cat_boundaries=0 1 2 3 4 5 6
cat_threshold=2 2 8192 2 4 8192
shrinkage=0.1


Tree=153
num_leaves=5
num_cat=4
split_feature=6 5 0 10
split_gain=0.369047 0.296155 0.143055 0.446074
threshold=0 1 2 3
decision_type=5 5 1 1
left_child=-1 -2 -3 -4
right_child=1 2 3 -5
leaf_value=-0.054171652922299786 -0.056419380882815208 0.014926906821371733 0.018535704621213615 -0.036254485283765812
leaf_count=40 37 43 34 24
internal_value=0 0.0255428 0.0598546 -0.0558198
internal_count=178 138 101 58
cat_boundaries=0 1 2 3 4
cat_threshold=2 2 8192 2
shrinkage=0.1


Tree=154
num_leaves=7
num_cat=6
split_feature=0 0 5 11 6 6
split_gain=0.166108 0.177897 0.183351 0.244671 0.125394 0.0148896
threshold=0 1 2 3 4 5
decision_type=1 1 5 5 5 5
left_child=-1 4 -3 -4 -2 -6
right_child=1 2 3 -5 5 -7
leaf_value=-0.050889750768523194 0.0074813843731634929 0.032183892657142353 0.018752693140421911 -0.012237694565834425 -0.010593783218152637 -0.020776677738871631
leaf_count=22 25 30 30 29 22 20
internal_value=0 0.0434796 0.117335 0.0517389 -0.0588965 -0.154006
internal_count=178 156 89 59 67 42
cat_boundaries=0 1 2 3 4 5 6
cat_threshold=16384 4096 2 8 2 4
shrinkage=0.1


Tree=155
num_leaves=7
num_cat=6
split_feature=10 6 6 8 5 0
split_gain=0.658228 0.440872 0.278881 0.00753306 3.8506e-06 1.07516e-06
threshold=0 1 2 3 4 5
decision_type=1 5 5 5 5 1
left_child=1 -1 -3 4 5 -2
right_child=3 2 -4 -5 -6 -7
leaf_value=0.033936663394523885 -0.050343794329266833 0.00064629021650023548 -0.051362801707702792 -0.062998792347969249 -0.050897530297310971 -0.050602613766654328
leaf_count=39 20 23 32 23 20 21
internal_value=0 0.0612662 -0.0817493 -0.564615 -0.506433 -0.504988
internal_count=178 94 55 84 61 41
cat_boundaries=0 1 2 3 4 5 6
cat_threshold=1 1 2 2 4 8192
shrinkage=0.1


Tree=156
num_leaves=6
num_cat=5
split_feature=6 6 0 11 0
split_gain=0.349596 0.274034 0.11925 0.38987 0.000259193
threshold=0 1 2 3 4
decision_type=5 5 1 5 1
left_child=-1 4 -3 -4 -2
right_child=1 2 3 -5 -6
leaf_value=-0.054068749624821791 -0.055341817320502952 0.013882942714753398 0.01299223353898259 -0.041897618993582179 -0.051790237819367251
leaf_count=40 20 42 32 24 20
internal_value=0 0.0235227 0.0575094 -0.0500207 -0.533733
internal_count=178 138 98 56 40
cat_boundaries=0 1 2 3 4 5
cat_threshold=2 1 8192 8 8192
shrinkage=0.1


Tree=157
num_leaves=6
num_cat=5
split_feature=0 0 10 11 5
split_gain=0.157847 0.174931 0.286319 0.233493 0.118541
threshold=0 1 2 3 4
decision_type=1 1 1 5 5
left_child=-1 2 -2 -3 -5
right_child=1 3 -4 4 -6
leaf_value=-0.050871278551995948 0.012711355567835654 0.030425614789135538 -0.020394460340789552 -0.010915502238545436 0.013085573255718212
leaf_count=22 32 37 38 22 27
internal_value=0 0.0419829 -0.0534187 0.120613 0.0211532
internal_count=178 156 70 86 49
cat_boundaries=0 1 2 3 4 5
cat_threshold=16384 8192 2 4 2
shrinkage=0.1


Tree=158
num_leaves=8
num_cat=7
split_feature=10 11 11 0 8 5 0
split_gain=0.627713 0.409905 0.501011 0.163021 0.00693631 3.14384e-06 9.32317e-07
threshold=0 1 2 3 4 5 6
decision_type=1 5 5 1 5 5 1
left_child=1 -1 -3 -4 5 6 -2
right_child=4 2 3 -5 -6 -7 -8
leaf_value=-0.051320840829274496 -0.050322444010374758 -0.013790327186495061 0.058178507896506186 0.020957986521541985 -0.062737156295218893 -0.050842683343980538 -0.050570668366596939
leaf_count=29 20 22 21 22 23 20 21
internal_value=0 0.0604354 0.125925 0.319838 -0.563854 -0.50606 -0.504717
internal_count=178 94 65 43 84 61 41
cat_boundaries=0 1 2 3 4 5 6 7
cat_threshold=1 8 4 8192 2 4 8192
shrinkage=0.1


Tree=159
num_leaves=6
num_cat=5
split_feature=5 8 0 11 0
split_gain=0.331574 0.22143 0.156225 0.388193 0.00138541
threshold=0 1 2 3 4
decision_type=5 5 1 5 1
left_child=4 2 -2 -4 -1
right_child=1 -3 3 -5 -6
leaf_value=-0.058039734710044068 0.025340391939112902 -0.013645896322372432 0.020039086078518523 -0.042862789975100471 -0.050982737430443265
leaf_count=23 31 39 23 22 40
internal_value=0 0.0229347 0.120799 -0.0131523 -0.542774
internal_count=178 115 76 45 63
cat_boundaries=0 1 2 3 4 5
cat_threshold=2 2 8192 8 8192
shrinkage=0.1


Tree=160
num_leaves=7
num_cat=6
split_feature=0 0 5 11 6 6
split_gain=0.149883 0.184584 0.1785 0.252289 0.126565 0.0147069
threshold=0 1 2 3 4 5
decision_type=1 1 5 5 5 5
left_child=-1 4 -3 -4 -2 -6
right_child=1 2 3 -5 5 -7
leaf_value=-0.050820711188660023 0.0072264254797351386 0.032252488401485466 0.019035826500799921 -0.012919588643610572 -0.011253866464847497 -0.021476660456540134
leaf_count=22 25 30 30 29 22 20
internal_value=0 0.0412107 0.117646 0.0520702 -0.0641147 -0.160366
internal_count=178 156 89 59 67 42
cat_boundaries=0 1 2 3 4 5 6
cat_threshold=16384 4096 2 8 2 4
shrinkage=0.1


Tree=161
num_leaves=7
num_cat=6
split_feature=10 8 0 8 5 0
split_gain=0.589425 0.426601 0.173336 0.00623471 2.65275e-06 7.8684e-07
threshold=0 1 2 3 4 5
decision_type=1 5 1 5 5 1
left_child=1 2 -1 4 5 -2
right_child=3 -3 -4 -5 -6 -7
leaf_value=0.0061924946375601746 -0.050302415650541166 0.026726864754128193 -0.029125399077674016 -0.062360842152508172 -0.050795172368373193 -0.050537491310575167
leaf_count=26 20 38 30 23 20 21
internal_value=0 0.0566272 -0.133026 -0.562438 -0.505712 -0.504442
internal_count=178 94 56 84 61 41
cat_boundaries=0 1 2 3 4 5 6
cat_threshold=1 2 8192 2 4 8192
shrinkage=0.1


Tree=162
num_leaves=7
num_cat=6
split_feature=6 6 6 10 11 0
split_gain=0.321685 0.253904 0.118005 0.196958 0.0869499 0.000269172
threshold=0 1 2 3 4 5
decision_type=5 5 5 1 5 1
left_child=-1 5 3 4 -3 -2
right_child=1 2 -4 -5 -6 -7
leaf_value=-0.053940118669231346 -0.055439149442107483 -0.0030728359043843828 0.018401604350920472 -0.021292951386621461 0.02197895166972362 -0.051691196203701509
leaf_count=40 20 24 33 20 21 20
internal_value=0 0.0229523 0.0552445 -0.0134045 0.0999666 -0.533769
internal_count=178 138 98 65 45 40
cat_boundaries=0 1 2 3 4 5 6
cat_threshold=2 1 4 2 4 8192
shrinkage=0.1


Tree=163
num_leaves=7
num_cat=6
split_feature=0 0 5 11 6 6
split_gain=0.142614 0.169466 0.1557 0.233833 0.116643 0.0165374
threshold=0 1 2 3 4 5
decision_type=1 1 5 5 5 5
left_child=-1 4 -3 -4 -2 -6
right_child=1 2 3 -5 5 -7
leaf_value=-0.050778467546805109 0.0069311239963813723 0.030388198365863251 0.018270810850291842 -0.012629037980672856 -0.010461594843150408 -0.021326683053276729
leaf_count=22 25 30 30 29 22 20
internal_value=0 0.038823 0.11224 0.050783 -0.0623664 -0.154721
internal_count=178 156 89 59 67 42
cat_boundaries=0 1 2 3 4 5 6
cat_threshold=16384 4096 2 8 2 4
shrinkage=0.1


Tree=164
num_leaves=7
num_cat=6
split_feature=10 6 6 8 5 0
split_gain=0.564231 0.405917 0.249695 0.00570671 2.1476e-06 7.08432e-07
threshold=0 1 2 3 4 5
decision_type=1 5 5 5 5 1
left_child=1 -1 -3 4 5 -2
right_child=3 2 -4 -5 -6 -7
leaf_value=0.032956982633540993 -0.050280869416933265 -9.8498932556516727e-05 -0.051294488615557798 -0.062064954747181933 -0.05074578653743498 -0.050510923468588848
leaf_count=39 20 23 32 23 20 21
internal_value=0 0.0559637 -0.083691 -0.561507 -0.505388 -0.504212
internal_count=178 94 55 84 61 41
cat_boundaries=0 1 2 3 4 5 6
cat_threshold=1 1 2 2 4 8192
shrinkage=0.1


Tree=165
num_leaves=5
num_cat=4
split_feature=6 5 0 10
split_gain=0.305174 0.239922 0.133694 0.393639
threshold=0 1 2 3
decision_type=5 5 1 1
left_child=-1 -2 -3 -4
right_child=1 2 3 -5
leaf_value=-0.053840373938540756 -0.055593643765432604 0.013852205912098329 0.01586551671558761 -0.036898828109771839
leaf_count=40 37 43 34 24
internal_value=0 0.0210891 0.0507296 -0.0634054
internal_count=178 138 101 58
cat_boundaries=0 1 2 3 4
cat_threshold=2 2 8192 2
shrinkage=0.1


Tree=166
num_leaves=6
num_cat=5
split_feature=0 0 10 11 5
split_gain=0.133856 0.161811 0.27576 0.205843 0.121472
threshold=0 1 2 3 4
decision_type=1 1 1 5 5
left_child=-1 2 -2 -3 -5
right_child=1 3 -4 4 -6
leaf_value=-0.050740339625944965 0.012526842527628982 0.029237973859911972 -0.020364605585560587 -0.011374055155430187 0.0131830020179881
leaf_count=22 32 37 38 22 27
internal_value=0 0.0374937 -0.0551883 0.114424 0.0211477
internal_count=178 156 70 86 49
cat_boundaries=0 1 2 3 4 5
cat_threshold=16384 8192 2 4 2
shrinkage=0.1


Tree=167
num_leaves=7
num_cat=6
split_feature=10 8 0 8 5 0
split_gain=0.53768 0.377483 0.179812 0.00524468 1.65908e-06 6.06708e-07
threshold=0 1 2 3 4 5
decision_type=1 5 1 5 5 1
left_child=1 2 -1 4 5 -2
right_child=3 -3 -4 -5 -6 -7
leaf_value=0.0074598501930211863 -0.050265590556103662 0.025642058359028982 -0.028781430841791713 -0.061807065669159417 -0.050693145819175216 -0.050484435680181065
leaf_count=26 20 38 30 23 20 21
internal_value=0 0.0547551 -0.124467 -0.560686 -0.505054 -0.503995
internal_count=178 94 56 84 61 41
cat_boundaries=0 1 2 3 4 5 6
cat_threshold=1 2 8192 2 4 8192
shrinkage=0.1


Tree=168
num_leaves=6
num_cat=5
split_feature=6 6 8 0 0
split_gain=0.28872 0.228691 0.108124 0.122119 0.000220335
threshold=0 1 2 3 4
decision_type=5 5 5 1 1
left_child=-1 4 3 -3 -2
right_child=1 2 -4 -5 -6
leaf_value=-0.053633614630026888 -0.05513914801347955 0.023737486855293026 -0.0071391193291494631 -0.00026142874575903018 -0.051593385313087319
leaf_count=40 20 30 31 37 20
internal_value=0 0.0218724 0.0517815 0.118802 -0.531991
internal_count=178 138 98 67 40
cat_boundaries=0 1 2 3 4 5
cat_threshold=2 1 2 8192 8192
shrinkage=0.1


Tree=169
num_leaves=7
num_cat=6
split_feature=0 0 10 6 11 6
split_gain=0.13199 0.811122 0.243546 0.10971 0.0721737 0.0155558
threshold=0 1 2 3 4 5
decision_type=1 1 1 5 5 5
left_child=3 2 -2 -1 -3 -5
right_child=1 4 -4 5 -6 -7
leaf_value=0.0063950566896810368 0.011994751816137997 0.036455628768650612 -0.019128743598858636 -0.010691740171020123 0.066371457892340641 -0.021316041306136759
leaf_count=25 32 20 38 22 21 20
internal_value=0 0.0891526 -0.0500147 -0.0653351 0.524603 -0.155377
internal_count=178 111 70 67 41 42
cat_boundaries=0 1 2 3 4 5 6
cat_threshold=4096 8192 2 2 8 4
shrinkage=0.1


Tree=170
num_leaves=7
num_cat=6
split_feature=10 6 6 8 5 0
split_gain=0.504472 0.379353 0.235867 0.00470725 1.49512e-06 5.02483e-07
threshold=0 1 2 3 4 5
decision_type=1 5 5 5 5 1
left_child=1 -1 -3 4 5 -2
right_child=3 2 -4 -5 -6 -7
leaf_value=0.032062870513874568 -0.050249114602792744 -0.00049690757588749437 -0.051254865145223996 -0.061469340320345789 -0.050662439768725066 -0.050454750200488653
leaf_count=39 20 23 32 23 20 21
internal_value=0 0.050666 -0.0848573 -0.559479 -0.504788 -0.503748
internal_count=178 94 55 84 61 41
cat_boundaries=0 1 2 3 4 5 6
cat_threshold=1 1 2 2 4 8192
shrinkage=0.1


Tree=171
num_leaves=6
num_cat=5
split_feature=5 8 0 11 0
split_gain=0.275553 0.181548 0.135652 0.356402 0.000898413
threshold=0 1 2 3 4
decision_type=5 5 1 5 1
left_child=4 2 -2 -4 -1
right_child=1 -3 3 -5 -6
leaf_value=-0.057167790865489967 0.024085638852546533 -0.012529019317391058 0.018643665567849282 -0.043053015680663838 -0.050962216257992403
leaf_count=23 31 39 23 22 40
internal_value=0 0.0219315 0.112345 -0.012576 -0.539023
internal_count=178 115 76 45 63
cat_boundaries=0 1 2 3 4 5
cat_threshold=2 2 8192 8 8192
shrinkage=0.1


Tree=172
num_leaves=7
num_cat=6
split_feature=0 0 5 11 6 6
split_gain=0.133867 0.161099 0.158423 0.256269 0.0966568 0.0133009
threshold=0 1 2 3 4 5
decision_type=1 1 5 5 5 5
left_child=-1 4 -3 -4 -2 -6
right_child=1 2 3 -5 5 -7
